{"learner":{"attributes":{"scikit_learn":"{\"_estimator_type\": \"regressor\"}"},"feature_names":[],"feature_types":[],"gradient_booster":{"model":{"cats":{"enc":[],"feature_segments":[],"sorted_idx":[]},"gbtree_model_param":{"num_parallel_tree":"1","num_trees":"100"},"iteration_indptr":[0,1,2,3,4,5,6,7,8,9,10,11,12,13,14,15,16,17,18,19,20,21,22,23,24,25,26,27,28,29,30,31,32,33,34,35,36,37,38,39,40,41,42,43,44,45,46,47,48,49,50,51,52,53,54,55,56,57,58,59,60,61,62,63,64,65,66,67,68,69,70,71,72,73,74,75,76,77,78,79,80,81,82,83,84,85,86,87,88,89,90,91,92,93,94,95,96,97,98,99,100],"tree_info":[0,0,0,0,0,0,0,0,0,0,0,0,0,0,0,0,0,0,0,0,0,0,0,0,0,0,0,0,0,0,0,0,0,0,0,0,0,0,0,0,0,0,0,0,0,0,0,0,0,0,0,0,0,0,0,0,0,0,0,0,0,0,0,0,0,0,0,0,0,0,0,0,0,0,0,0,0,0,0,0,0,0,0,0,0,0,0,0,0,0,0,0,0,0,0,0,0,0,0,0],"trees":[{"base_weights":[3.4583707E-6,-4.4898964E1,6.0680466E1,-6.486313E1,-1.8644526E1,3.0461233E1,8.808773E1,-7.4515274E1,-5.1933853E1,-3.1794151E1,-8.945678E0,1.5282851E1,4.224189E1,7.290465E1,1.0954153E2,-7.907011E1,-6.703916E1,-5.7666553E1,-4.6295067E1,-3.8559143E1,-2.5190132E1,-1.6849756E1,2.4515972E0,7.84573E0,2.7443285E1,2.9753242E1,5.0871246E1,6.18782E1,8.781751E1,9.882746E1,1.2586572E2,-8.314621E0,-7.6141696E0,-6.985821E0,-6.324449E0,-6.140117E0,-5.217993E0,-4.966363E0,-3.957259E0,-4.335314E0,-3.1135352E0,-2.9596438E0,-1.8099047E0,-2.2242324E0,-7.3634475E-1,-5.420427E-1,9.4517595E-1,1.0545757E-1,1.915094E0,2.2475867E0,4.5227523E0,2.3316133E0,4.2199826E0,4.1359544E0,6.286542E0,4.7770777E0,7.0964866E0,7.6520815E0,1.0326824E1,8.5744505E0,1.1023631E1,1.0786199E1,1.4188739E1],"categories":[],"categories_nodes":[],"categories_segments":[],"categories_sizes":[],"default_left":[0,0,0,0,0,0,0,0,0,0,0,0,0,0,0,0,0,0,0,0,0,0,0,0,0,0,0,0,0,0,0,0,0,0,0,0,0,0,0,0,0,0,0,0,0,0,0,0,0,0,0,0,0,0,0,0,0,0,0,0,0,0,0],"id":0,"left_children":[1,3,5,7,9,11,13,15,17,19,21,23,25,27,29,31,33,35,37,39,41,43,45,47,49,51,53,55,57,59,61,-1,-1,-1,-1,-1,-1,-1,-1,-1,-1,-1,-1,-1,-1,-1,-1,-1,-1,-1,-1,-1,-1,-1,-1,-1,-1,-1,-1,-1,-1,-1,-1],"loss_changes":[3.2699332E7,3.614364E6,4.224584E6,4.85077E5,3.7990094E5,4.3368725E5,8.6368E5,7.1011E4,5.15725E4,5.5544E4,1.5471719E5,9.592092E4,1.4580675E5,2.527305E5,1.81173E5,1.0226E4,4.72825E3,1.376225E4,1.730575E4,2.08225E4,1.9555188E4,5.1708E4,3.884547E4,5.0728355E4,3.458522E4,4.3963438E4,8.94665E4,1.1274975E5,1.081685E5,9.1001E4,1.101715E5,0E0,0E0,0E0,0E0,0E0,0E0,0E0,0E0,0E0,0E0,0E0,0E0,0E0,0E0,0E0,0E0,0E0,0E0,0E0,0E0,0E0,0E0,0E0,0E0,0E0,0E0,0E0,0E0,0E0,0E0,0E0,0E0],"parents":[2147483647,0,0,1,1,2,2,3,3,4,4,5,5,6,6,7,7,8,8,9,9,10,10,11,11,12,12,13,13,14,14,15,15,16,16,17,17,18,18,19,19,20,20,21,21,22,22,23,23,24,24,25,25,26,26,27,27,28,28,29,29,30,30],"right_children":[2,4,6,8,10,12,14,16,18,20,22,24,26,28,30,32,34,36,38,40,42,44,46,48,50,52,54,56,58,60,62,-1,-1,-1,-1,-1,-1,-1,-1,-1,-1,-1,-1,-1,-1,-1,-1,-1,-1,-1,-1,-1,-1,-1,-1,-1,-1,-1,-1,-1,-1,-1,-1],"split_conditions":[3.030625E-1,-5.4008824E-1,1.0257632E0,-1.0218886E0,-1.7873791E-1,4.7421783E-1,1.3127838E0,-1.2627889E0,-6.788105E-1,-2.5952744E-1,1.5975557E-1,2.5272512E-1,6.644128E-1,1.3472117E-1,2.5272512E-1,-1.503689E0,-8.88452E-1,1.9372314E-1,-6.605383E-1,2.5272512E-1,1.3472117E-1,1.9372314E-1,-2.1929067E-1,6.644128E-1,7.8486294E-1,5.47735E-1,1.6717225E-2,7.886801E-1,1.3871135E0,1.5075635E0,1.0071925E0,-8.314621E0,-7.6141696E0,-6.985821E0,-6.324449E0,-6.140117E0,-5.217993E0,-4.966363E0,-3.957259E0,-4.335314E0,-3.1135352E0,-2.9596438E0,-1.8099047E0,-2.2242324E0,-7.3634475E-1,-5.420427E-1,9.4517595E-1,1.0545757E-1,1.915094E0,2.2475867E0,4.5227523E0,2.3316133E0,4.2199826E0,4.1359544E0,6.286542E0,4.7770777E0,7.0964866E0,7.6520815E0,1.0326824E1,8.5744505E0,1.1023631E1,1.0786199E1,1.4188739E1],"split_indices":[4,4,4,4,4,5,5,4,5,5,5,1,4,1,1,4,5,1,4,1,1,1,1,4,4,1,1,5,4,4,0,0,0,0,0,0,0,0,0,0,0,0,0,0,0,0,0,0,0,0,0,0,0,0,0,0,0,0,0,0,0,0,0],"split_type":[0,0,0,0,0,0,0,0,0,0,0,0,0,0,0,0,0,0,0,0,0,0,0,0,0,0,0,0,0,0,0,0,0,0,0,0,0,0,0,0,0,0,0,0,0,0,0,0,0,0,0,0,0,0,0,0,0,0,0,0,0,0,0],"sum_hessian":[1.2E4,6.897E3,5.103E3,3.917E3,2.98E3,2.428E3,2.675E3,2.24E3,1.677E3,1.264E3,1.716E3,1.062E3,1.366E3,1.569E3,1.106E3,1.386E3,8.54E2,8.27E2,8.5E2,6.22E2,6.42E2,1.013E3,7.03E2,6.6E2,4.02E2,5.6E2,8.06E2,9.05E2,6.64E2,6.72E2,4.34E2,5.68E2,8.18E2,4.8E2,3.74E2,4.86E2,3.41E2,5.62E2,2.88E2,3.75E2,2.47E2,3.94E2,2.48E2,6.45E2,3.68E2,3.31E2,3.72E2,4.13E2,2.47E2,3.16E2,8.6E1,3.71E2,1.89E2,4.52E2,3.54E2,3.57E2,5.48E2,3.87E2,2.77E2,3.17E2,3.55E2,2.08E2,2.26E2],"tree_param":{"num_deleted":"0","num_feature":"7","num_nodes":"63","size_leaf_vector":"1"}},{"base_weights":[2.9934398E-3,-4.0418392E1,5.463205E1,-6.078798E1,-1.9528744E1,3.1589231E1,8.3893036E1,-6.925733E1,-5.167475E1,-3.1169794E1,-8.052598E0,2.06028E1,4.8836494E1,7.343684E1,1.06863525E2,-7.3074718E0,-6.4756E1,-5.633871E1,-4.7308178E1,-3.6973946E1,-2.4407883E1,-1.8004469E1,-3.518713E-1,1.16163E1,3.093625E1,3.5669327E1,5.8329346E1,6.50985E1,9.202226E1,9.458612E1,1.1823021E2,-6.677162E0,-6.1652493E0,-5.909852E0,-5.256136E0,-5.331704E0,-4.3845353E0,-4.080683E0,-2.990569E0,-2.7252085E0,-1.5617517E0,-2.1854281E0,-7.88619E-1,-6.552453E-1,7.5010896E-1,4.6078822E-1,2.2372844E0,2.357735E0,4.4986887E0,2.9423454E0,4.6444902E0,4.9647136E0,7.42769E0,5.156941E0,7.3532367E0,7.822549E0,1.06376295E1,7.86188E0,9.924027E0,1.0380126E1,1.322405E1],"categories":[],"categories_nodes":[],"categories_segments":[],"categories_sizes":[],"default_left":[0,0,0,0,0,0,0,0,0,0,0,0,0,0,0,0,0,0,0,0,0,0,0,0,0,0,0,0,0,0,0,0,0,0,0,0,0,0,0,0,0,0,0,0,0,0,0,0,0,0,0,0,0,0,0,0,0,0,0,0,0],"id":1,"left_children":[1,3,5,7,9,11,13,15,17,19,21,23,25,27,29,-1,31,33,35,37,39,41,43,45,47,49,51,53,55,57,59,-1,-1,-1,-1,-1,-1,-1,-1,-1,-1,-1,-1,-1,-1,-1,-1,-1,-1,-1,-1,-1,-1,-1,-1,-1,-1,-1,-1,-1,-1],"loss_changes":[2.65026E7,2.934006E6,3.438751E6,2.65944E5,4.5490512E5,5.40355E5,5.32086E5,2.6317E4,3.1671E4,6.54645E4,1.3157877E5,1.6186988E5,1.367875E5,2.33905E5,8.6644E4,0E0,1.1255E3,5.33775E3,1.5910625E4,2.3379E4,1.9175625E4,2.9003797E4,4.7232594E4,7.045852E4,8.2897875E4,3.0131188E4,8.548075E4,1.185255E5,8.61435E4,1.76135E4,5.9048E4,0E0,0E0,0E0,0E0,0E0,0E0,0E0,0E0,0E0,0E0,0E0,0E0,0E0,0E0,0E0,0E0,0E0,0E0,0E0,0E0,0E0,0E0,0E0,0E0,0E0,0E0,0E0,0E0,0E0,0E0],"parents":[2147483647,0,0,1,1,2,2,3,3,4,4,5,5,6,6,7,7,8,8,9,9,10,10,11,11,12,12,13,13,14,14,16,16,17,17,18,18,19,19,20,20,21,21,22,22,23,23,24,24,25,25,26,26,27,27,28,28,29,29,30,30],"right_children":[2,4,6,8,10,12,14,16,18,20,22,24,26,28,30,-1,32,34,36,38,40,42,44,46,48,50,52,54,56,58,60,-1,-1,-1,-1,-1,-1,-1,-1,-1,-1,-1,-1,-1,-1,-1,-1,-1,-1,-1,-1,-1,-1,-1,-1,-1,-1,-1,-1,-1,-1],"split_conditions":[3.030625E-1,-6.605383E-1,1.1462132E0,-1.1423388E0,-1.7873791E-1,7.886801E-1,1.5224254E0,-1.3832389E0,-9.0143853E-1,-2.5952744E-1,-4.9885944E-2,6.644128E-1,7.8486294E-1,5.47735E-1,-1.6028869E-1,-7.3074718E0,7.57192E-2,-7.836312E-1,-8.88452E-1,4.2973104E-1,7.837429E-1,6.0673696E-1,1.6717225E-2,2.5272512E-1,4.2973104E-1,4.2973104E-1,3.7072906E-1,8.9350086E-1,1.0071925E0,1.3871135E0,1.0071925E0,-6.677162E0,-6.1652493E0,-5.909852E0,-5.256136E0,-5.331704E0,-4.3845353E0,-4.080683E0,-2.990569E0,-2.7252085E0,-1.5617517E0,-2.1854281E0,-7.88619E-1,-6.552453E-1,7.5010896E-1,4.6078822E-1,2.2372844E0,2.357735E0,4.4986887E0,2.9423454E0,4.6444902E0,4.9647136E0,7.42769E0,5.156941E0,7.3532367E0,7.822549E0,1.06376295E1,7.86188E0,9.924027E0,1.0380126E1,1.322405E1],"split_indices":[4,4,4,4,4,5,5,4,4,5,5,4,4,1,1,0,1,5,5,1,1,1,1,1,1,1,1,5,0,4,0,0,0,0,0,0,0,0,0,0,0,0,0,0,0,0,0,0,0,0,0,0,0,0,0,0,0,0,0,0,0],"split_type":[0,0,0,0,0,0,0,0,0,0,0,0,0,0,0,0,0,0,0,0,0,0,0,0,0,0,0,0,0,0,0,0,0,0,0,0,0,0,0,0,0,0,0,0,0,0,0,0,0,0,0,0,0,0,0,0,0,0,0,0,0],"sum_hessian":[1.2E4,6.897E3,5.103E3,3.491E3,3.406E3,2.856E3,2.247E3,1.806E3,1.685E3,1.69E3,1.716E3,1.746E3,1.11E3,1.547E3,7E2,9.69E2,8.37E2,8.09E2,8.76E2,9.07E2,7.83E2,7.48E2,9.68E2,9.35E2,8.11E2,4.67E2,6.43E2,1.071E3,4.76E2,3.41E2,3.59E2,4.95E2,3.42E2,4.59E2,3.5E2,3.15E2,5.61E2,5.85E2,3.22E2,5.9E2,1.93E2,5.41E2,2.07E2,5.41E2,4.27E2,5.67E2,3.68E2,5.34E2,2.77E2,2.98E2,1.69E2,4.19E2,2.24E2,4.14E2,6.57E2,2.46E2,2.3E2,8.1E1,2.6E2,1.81E2,1.78E2],"tree_param":{"num_deleted":"0","num_feature":"7","num_nodes":"61","size_leaf_vector":"1"}},{"base_weights":[6.579545E-3,-3.389413E1,5.291541E1,-5.0626705E1,-9.56386E0,3.2053185E1,7.553592E1,-6.0409298E1,-4.013319E1,-1.8199108E1,1.8854657E0,2.3279583E1,4.8232105E1,5.801427E1,8.680685E1,-6.41202E1,-5.4318737E1,-4.4495415E1,-3.360693E1,-2.4607565E1,-1.2100136E1,-7.060983E0,1.0262327E1,1.57945595E1,3.3573063E1,3.923453E1,5.8510124E1,4.7015507E1,6.938795E1,7.611738E1,9.874307E1,-6.7551575E0,-6.165796E0,-5.6120434E0,-4.995607E0,-5.0282907E0,-4.173932E0,-3.7694547E0,-2.8454344E0,-2.9086766E0,-1.799518E0,-1.6689309E0,-4.4982862E-1,-1.4295595E0,-3.4206804E-2,4.311044E-1,1.9072803E0,5.385329E-1,2.1188135E0,2.656862E0,4.3193674E0,3.2767353E0,4.6711116E0,4.689489E0,6.8789477E0,3.3978424E0,5.21734E0,6.1539707E0,8.301649E0,6.710369E0,8.90285E0,8.605449E0,1.10778475E1],"categories":[],"categories_nodes":[],"categories_segments":[],"categories_sizes":[],"default_left":[0,0,0,0,0,0,0,0,0,0,0,0,0,0,0,0,0,0,0,0,0,0,0,0,0,0,0,0,0,0,0,0,0,0,0,0,0,0,0,0,0,0,0,0,0,0,0,0,0,0,0,0,0,0,0,0,0,0,0,0,0,0,0],"id":2,"left_children":[1,3,5,7,9,11,13,15,17,19,21,23,25,27,29,31,33,35,37,39,41,43,45,47,49,51,53,55,57,59,61,-1,-1,-1,-1,-1,-1,-1,-1,-1,-1,-1,-1,-1,-1,-1,-1,-1,-1,-1,-1,-1,-1,-1,-1,-1,-1,-1,-1,-1,-1,-1,-1],"loss_changes":[2.152735E7,2.977511E6,2.209442E6,4.42478E5,2.9485797E5,3.4522875E5,4.3891E5,4.71675E4,5.81185E4,6.614675E4,9.622455E4,1.21512E5,7.6957375E4,1.071975E5,1.66775E5,7.5535E3,3.91675E3,1.7872E4,1.6682562E4,2.4000469E4,3.0380562E4,3.018113E4,3.468128E4,5.1481266E4,4.3732188E4,2.0711438E4,4.4294E4,2.86215E4,4.1098125E4,7.83985E4,8.85085E4,0E0,0E0,0E0,0E0,0E0,0E0,0E0,0E0,0E0,0E0,0E0,0E0,0E0,0E0,0E0,0E0,0E0,0E0,0E0,0E0,0E0,0E0,0E0,0E0,0E0,0E0,0E0,0E0,0E0,0E0,0E0,0E0],"parents":[2147483647,0,0,1,1,2,2,3,3,4,4,5,5,6,6,7,7,8,8,9,9,10,10,11,11,12,12,13,13,14,14,15,15,16,16,17,17,18,18,19,19,20,20,21,21,22,22,23,23,24,24,25,25,26,26,27,27,28,28,29,29,30,30],"right_children":[2,4,6,8,10,12,14,16,18,20,22,24,26,28,30,32,34,36,38,40,42,44,46,48,50,52,54,56,58,60,62,-1,-1,-1,-1,-1,-1,-1,-1,-1,-1,-1,-1,-1,-1,-1,-1,-1,-1,-1,-1,-1,-1,-1,-1,-1,-1,-1,-1,-1,-1,-1,-1],"split_conditions":[4.235126E-1,-4.1963813E-1,1.1462132E0,-1.0218886E0,6.216229E-2,8.9350086E-1,1.1031424E0,-1.2627889E0,-6.605383E-1,-1.547067E-1,1.5975557E-1,1.3472117E-1,-4.228475E-2,-1.01286724E-1,-4.228475E-2,-1.503689E0,6.6573894E-1,-9.932727E-1,-3.643482E-1,7.57192E-2,1.9372314E-1,-3.372946E-1,1.9372314E-1,2.6457632E-1,7.8486294E-1,9.05313E-1,1.0071925E0,5.7903856E-1,1.5075635E0,1.6272461E0,1.0071925E0,-6.7551575E0,-6.165796E0,-5.6120434E0,-4.995607E0,-5.0282907E0,-4.173932E0,-3.7694547E0,-2.8454344E0,-2.9086766E0,-1.799518E0,-1.6689309E0,-4.4982862E-1,-1.4295595E0,-3.4206804E-2,4.311044E-1,1.9072803E0,5.385329E-1,2.1188135E0,2.656862E0,4.3193674E0,3.2767353E0,4.6711116E0,4.689489E0,6.8789477E0,3.3978424E0,5.21734E0,6.1539707E0,8.301649E0,6.710369E0,8.90285E0,8.605449E0,1.10778475E1],"split_indices":[4,4,4,4,4,5,5,4,4,5,5,1,1,1,1,4,1,5,5,1,1,1,1,5,4,4,0,5,4,5,0,0,0,0,0,0,0,0,0,0,0,0,0,0,0,0,0,0,0,0,0,0,0,0,0,0,0,0,0,0,0,0,0],"split_type":[0,0,0,0,0,0,0,0,0,0,0,0,0,0,0,0,0,0,0,0,0,0,0,0,0,0,0,0,0,0,0,0,0,0,0,0,0,0,0,0,0,0,0,0,0,0,0,0,0,0,0,0,0,0,0,0,0,0,0,0,0,0,0],"sum_hessian":[1.2E4,7.314E3,4.686E3,4.333E3,2.981E3,2.439E3,2.247E3,2.24E3,2.093E3,1.699E3,1.282E3,1.583E3,8.56E2,8.82E2,1.365E3,1.386E3,8.54E2,1.251E3,8.42E2,8.27E2,8.72E2,6.2E2,6.62E2,9.18E2,6.65E2,4.59E2,3.97E2,4.51E2,4.31E2,7.24E2,6.41E2,5.68E2,8.18E2,5.96E2,2.58E2,3.98E2,8.53E2,4.66E2,3.76E2,4.91E2,3.36E2,5.43E2,3.29E2,2.98E2,3.22E2,3.96E2,2.66E2,3.14E2,6.04E2,3.87E2,2.78E2,2.49E2,2.1E2,1.89E2,2.08E2,1.3E2,3.21E2,2.77E2,1.54E2,4.3E2,2.94E2,3.16E2,3.25E2],"tree_param":{"num_deleted":"0","num_feature":"7","num_nodes":"63","size_leaf_vector":"1"}},{"base_weights":[9.439771E-3,-3.051091E1,4.764254E1,-4.5573112E1,-8.60947E0,3.1775064E1,7.22207E1,-5.295734E1,-3.430917E1,-1.6383213E1,1.6976007E0,2.2447878E1,4.6462376E1,6.3284927E1,8.954604E1,-5.7717495E1,-4.7546535E1,-4.18424E1,-3.13991E1,-1.9518316E1,-5.9071355E0,-9.840476E0,7.2057757E0,1.4424855E1,3.0426855E1,3.9386993E1,5.828502E1,5.7100525E1,8.1489845E1,8.286939E1,1.069918E2,-6.080829E0,-5.5499697E0,-4.9776254E0,-4.389766E0,-4.4850497E0,-3.7238624E0,-3.5543697E0,-2.7102358E0,-2.4163225E0,-1.4293157E0,-9.9836856E-1,2.6105946E-1,-1.5905827E0,-3.5495993E-1,2.31093E-1,1.5980737E0,7.189904E-1,2.2485263E0,2.2682757E0,3.925686E0,3.018452E0,4.5710216E0,3.982716E0,6.5212436E0,4.5620933E0,6.3120575E0,6.770183E0,9.537803E0,7.564078E0,9.147023E0,9.101721E0,1.1968412E1],"categories":[],"categories_nodes":[],"categories_segments":[],"categories_sizes":[],"default_left":[0,0,0,0,0,0,0,0,0,0,0,0,0,0,0,0,0,0,0,0,0,0,0,0,0,0,0,0,0,0,0,0,0,0,0,0,0,0,0,0,0,0,0,0,0,0,0,0,0,0,0,0,0,0,0,0,0,0,0,0,0,0,0],"id":3,"left_children":[1,3,5,7,9,11,13,15,17,19,21,23,25,27,29,31,33,35,37,39,41,43,45,47,49,51,53,55,57,59,61,-1,-1,-1,-1,-1,-1,-1,-1,-1,-1,-1,-1,-1,-1,-1,-1,-1,-1,-1,-1,-1,-1,-1,-1,-1,-1,-1,-1,-1,-1,-1,-1],"loss_changes":[1.7448254E7,2.412708E6,1.825604E6,3.58666E5,2.3895914E5,3.8938225E5,2.78884E5,6.4634E4,3.63705E4,5.5718812E4,8.161036E4,1.1126806E5,9.022075E4,1.32252E5,6.37E4,6.133E3,7.82225E3,4.92175E3,2.119025E4,3.1400281E4,1.3672183E4,1.57784375E4,3.728843E4,5.069047E4,5.8874125E4,3.9061875E4,5.0083375E4,6.00775E4,5.213875E4,2.136925E4,2.3372375E4,0E0,0E0,0E0,0E0,0E0,0E0,0E0,0E0,0E0,0E0,0E0,0E0,0E0,0E0,0E0,0E0,0E0,0E0,0E0,0E0,0E0,0E0,0E0,0E0,0E0,0E0,0E0,0E0,0E0,0E0,0E0,0E0],"parents":[2147483647,0,0,1,1,2,2,3,3,4,4,5,5,6,6,7,7,8,8,9,9,10,10,11,11,12,12,13,13,14,14,15,15,16,16,17,17,18,18,19,19,20,20,21,21,22,22,23,23,24,24,25,25,26,26,27,27,28,28,29,29,30,30],"right_children":[2,4,6,8,10,12,14,16,18,20,22,24,26,28,30,32,34,36,38,40,42,44,46,48,50,52,54,56,58,60,62,-1,-1,-1,-1,-1,-1,-1,-1,-1,-1,-1,-1,-1,-1,-1,-1,-1,-1,-1,-1,-1,-1,-1,-1,-1,-1,-1,-1,-1,-1,-1,-1],"split_conditions":[4.235126E-1,-4.1963813E-1,1.2666633E0,-9.0143853E-1,6.216229E-2,8.9350086E-1,1.5224254E0,-1.2627889E0,-8.88452E-1,2.6457632E-1,-4.9885944E-2,-1.6028869E-1,3.7072906E-1,8.427448E-1,7.837429E-1,-1.503689E0,-7.836312E-1,1.3472117E-1,-1.01286724E-1,-1.6028869E-1,4.2973104E-1,-2.7829266E-1,3.7072906E-1,7.8486294E-1,7.8486294E-1,9.05313E-1,7.8486294E-1,8.9350086E-1,1.0071925E0,1.6280136E0,1.0071925E0,-6.080829E0,-5.5499697E0,-4.9776254E0,-4.389766E0,-4.4850497E0,-3.7238624E0,-3.5543697E0,-2.7102358E0,-2.4163225E0,-1.4293157E0,-9.9836856E-1,2.6105946E-1,-1.5905827E0,-3.5495993E-1,2.31093E-1,1.5980737E0,7.189904E-1,2.2485263E0,2.2682757E0,3.925686E0,3.018452E0,4.5710216E0,3.982716E0,6.5212436E0,4.5620933E0,6.3120575E0,6.770183E0,9.537803E0,7.564078E0,9.147023E0,9.101721E0,1.1968412E1],"split_indices":[4,4,4,4,4,5,5,4,5,5,5,1,1,1,1,4,5,1,1,1,1,1,1,4,4,4,4,5,0,4,0,0,0,0,0,0,0,0,0,0,0,0,0,0,0,0,0,0,0,0,0,0,0,0,0,0,0,0,0,0,0,0,0],"split_type":[0,0,0,0,0,0,0,0,0,0,0,0,0,0,0,0,0,0,0,0,0,0,0,0,0,0,0,0,0,0,0,0,0,0,0,0,0,0,0,0,0,0,0,0,0,0,0,0,0,0,0,0,0,0,0,0,0,0,0,0,0,0,0],"sum_hessian":[1.2E4,7.314E3,4.686E3,4.333E3,2.981E3,2.849E3,1.837E3,2.615E3,1.718E3,1.699E3,1.282E3,1.744E3,1.105E3,1.215E3,6.22E2,1.386E3,1.229E3,4.75E2,1.243E3,1.307E3,3.92E2,4.14E2,8.68E2,8.71E2,8.73E2,6.94E2,4.11E2,9.1E2,3.05E2,4.54E2,1.68E2,5.68E2,8.18E2,7.55E2,4.74E2,2.82E2,1.93E2,6.29E2,6.14E2,6.9E2,6.17E2,2.65E2,1.27E2,2.1E2,2.04E2,5.58E2,3.1E2,4.6E2,4.11E2,4.67E2,4.06E2,2.85E2,4.09E2,1.14E2,2.97E2,3.16E2,5.94E2,1.56E2,1.49E2,2.52E2,2.02E2,7.8E1,9E1],"tree_param":{"num_deleted":"0","num_feature":"7","num_nodes":"63","size_leaf_vector":"1"}},{"base_weights":[1.2831563E-2,-2.952022E1,3.9926426E1,-4.27092E1,-1.217572E1,1.9811838E1,5.8169476E1,-5.062538E1,-3.5916E1,-1.9008127E1,-3.2047079E0,7.0175486E0,2.6985615E1,4.58635E1,7.0644905E1,-5.3415123E1,-4.7335796E1,-3.9564228E1,-3.0537859E1,-2.5347092E1,-1.4734183E1,-7.769276E0,6.9341216E0,3.6009245E0,1.8817907E1,2.233101E1,3.8375973E1,3.999535E1,6.0102505E1,6.097693E1,8.047072E1,-5.70136E0,-5.248868E0,-4.9863186E0,-4.549259E0,-4.173345E0,-3.507295E0,-3.343273E0,-2.4870718E0,-2.7794323E0,-1.7153376E0,-1.8338569E0,-9.187493E-1,-1.0334618E0,3.3988464E-1,4.3108788E-1,1.7916199E0,-7.0375746E-1,7.365968E-1,1.0963732E0,2.7946563E0,1.8273808E0,3.3385468E0,2.8172567E0,4.7674103E0,3.5110345E0,5.3858776E0,4.987505E0,7.0823665E0,5.5800357E0,7.8205805E0,7.1248636E0,9.447516E0],"categories":[],"categories_nodes":[],"categories_segments":[],"categories_sizes":[],"default_left":[0,0,0,0,0,0,0,0,0,0,0,0,0,0,0,0,0,0,0,0,0,0,0,0,0,0,0,0,0,0,0,0,0,0,0,0,0,0,0,0,0,0,0,0,0,0,0,0,0,0,0,0,0,0,0,0,0,0,0,0,0,0,0],"id":4,"left_children":[1,3,5,7,9,11,13,15,17,19,21,23,25,27,29,31,33,35,37,39,41,43,45,47,49,51,53,55,57,59,61,-1,-1,-1,-1,-1,-1,-1,-1,-1,-1,-1,-1,-1,-1,-1,-1,-1,-1,-1,-1,-1,-1,-1,-1,-1,-1,-1,-1,-1,-1,-1,-1],"loss_changes":[1.41476E7,1.577441E6,1.8717675E6,2.088775E5,1.8265534E5,2.2275244E5,4.07586E5,1.4054E4,4.02305E4,4.5466875E4,5.9754277E4,3.5169637E4,8.1638375E4,1.103975E5,1.211525E5,2.415E2,1.635625E3,1.0763125E4,1.32445625E4,1.3158531E4,2.0083828E4,2.5533664E4,1.1475037E4,2.724879E4,1.3746422E4,4.9039062E4,4.13495E4,6.305525E4,3.9450375E4,5.56585E4,7.78615E4,0E0,0E0,0E0,0E0,0E0,0E0,0E0,0E0,0E0,0E0,0E0,0E0,0E0,0E0,0E0,0E0,0E0,0E0,0E0,0E0,0E0,0E0,0E0,0E0,0E0,0E0,0E0,0E0,0E0,0E0,0E0,0E0],"parents":[2147483647,0,0,1,1,2,2,3,3,4,4,5,5,6,6,7,7,8,8,9,9,10,10,11,11,12,12,13,13,14,14,15,15,16,16,17,17,18,18,19,19,20,20,21,21,22,22,23,23,24,24,25,25,26,26,27,27,28,28,29,29,30,30],"right_children":[2,4,6,8,10,12,14,16,18,20,22,24,26,28,30,32,34,36,38,40,42,44,46,48,50,52,54,56,58,60,62,-1,-1,-1,-1,-1,-1,-1,-1,-1,-1,-1,-1,-1,-1,-1,-1,-1,-1,-1,-1,-1,-1,-1,-1,-1,-1,-1,-1,-1,-1,-1,-1],"split_conditions":[3.030625E-1,-5.4008824E-1,1.0257632E0,-1.1423388E0,-5.8287814E-2,3.6939707E-1,1.2079631E0,-1.3832389E0,-7.8098845E-1,-3.643482E-1,3.6939707E-1,9.017468E-1,6.6573894E-1,6.0673696E-1,1.5075635E0,-1.6241392E0,-1.2029142E0,5.47735E-1,4.2973104E-1,9.607488E-1,1.3472117E-1,1.0197507E0,1.0787528E0,-1.547067E-1,1.0071925E0,1.1031424E0,1.0071925E0,1.5075635E0,1.0071925E0,1.0197507E0,1.3472117E-1,-5.70136E0,-5.248868E0,-4.9863186E0,-4.549259E0,-4.173345E0,-3.507295E0,-3.343273E0,-2.4870718E0,-2.7794323E0,-1.7153376E0,-1.8338569E0,-9.187493E-1,-1.0334618E0,3.3988464E-1,4.3108788E-1,1.7916199E0,-7.0375746E-1,7.365968E-1,1.0963732E0,2.7946563E0,1.8273808E0,3.3385468E0,2.8172567E0,4.7674103E0,3.5110345E0,5.3858776E0,4.987505E0,7.0823665E0,5.5800357E0,7.8205805E0,7.1248636E0,9.447516E0],"split_indices":[4,4,4,4,4,5,5,4,4,5,5,1,1,1,4,4,5,1,1,1,1,1,1,5,0,5,0,4,0,1,1,0,0,0,0,0,0,0,0,0,0,0,0,0,0,0,0,0,0,0,0,0,0,0,0,0,0,0,0,0,0,0,0],"split_type":[0,0,0,0,0,0,0,0,0,0,0,0,0,0,0,0,0,0,0,0,0,0,0,0,0,0,0,0,0,0,0,0,0,0,0,0,0,0,0,0,0,0,0,0,0,0,0,0,0,0,0,0,0,0,0,0,0,0,0,0,0,0,0],"sum_hessian":[1.2E4,6.897E3,5.103E3,3.917E3,2.98E3,2.428E3,2.675E3,1.806E3,2.111E3,1.691E3,1.289E3,8.73E2,1.555E3,1.349E3,1.326E3,9.69E2,8.37E2,1.254E3,8.57E2,6.79E2,1.012E3,8.89E2,4E2,6.78E2,1.95E2,1.106E3,4.49E2,9.58E2,3.91E2,6.72E2,6.54E2,1.86E2,7.83E2,3.42E2,4.95E2,8.4E2,4.14E2,5.64E2,2.93E2,5.21E2,1.58E2,6.12E2,4E2,7.23E2,1.66E2,3.24E2,7.6E1,1.77E2,5.01E2,1.06E2,8.9E1,8.11E2,2.95E2,2.16E2,2.33E2,7.11E2,2.47E2,2.03E2,1.88E2,5.2E2,1.52E2,3.98E2,2.56E2],"tree_param":{"num_deleted":"0","num_feature":"7","num_nodes":"63","size_leaf_vector":"1"}},{"base_weights":[1.3873311E-2,-2.4774513E1,3.87011E1,-3.6974453E1,-7.03497E0,2.5718332E1,5.88111E1,-4.4157177E1,-2.926984E1,-1.3720981E1,7.051981E-1,1.5473455E1,3.4812374E1,5.1387043E1,7.320732E1,-4.80849E1,-4.1127266E1,-3.3296055E1,-2.4780775E1,-1.8233253E1,-8.452348E0,-4.8900332E0,9.369811E0,1.1794116E1,2.8051142E1,2.6346067E1,4.1781067E1,4.2453568E1,6.030943E1,6.636936E1,8.509114E1,-5.1342735E0,-4.724651E0,-4.306645E0,-3.818375E0,-3.603E0,-2.9122734E0,-2.7774596E0,-2.0131767E0,-2.2146604E0,-1.4166507E0,-1.619446E0,-4.951099E-1,-1.0585012E0,-5.848823E-2,3.9093912E-1,1.5476183E0,5.945605E-2,1.52264E0,1.860524E0,3.6488907E0,2.2596073E0,3.8998659E0,3.4559116E0,5.0942464E0,3.0803542E0,4.68021E0,5.1776795E0,6.867119E0,6.0895157E0,7.610077E0,7.1720476E0,9.714055E0],"categories":[],"categories_nodes":[],"categories_segments":[],"categories_sizes":[],"default_left":[0,0,0,0,0,0,0,0,0,0,0,0,0,0,0,0,0,0,0,0,0,0,0,0,0,0,0,0,0,0,0,0,0,0,0,0,0,0,0,0,0,0,0,0,0,0,0,0,0,0,0,0,0,0,0,0,0,0,0,0,0,0,0],"id":5,"left_children":[1,3,5,7,9,11,13,15,17,19,21,23,25,27,29,31,33,35,37,39,41,43,45,47,49,51,53,55,57,59,61,-1,-1,-1,-1,-1,-1,-1,-1,-1,-1,-1,-1,-1,-1,-1,-1,-1,-1,-1,-1,-1,-1,-1,-1,-1,-1,-1,-1,-1,-1,-1,-1],"loss_changes":[1.1509845E7,1.582862E6,1.2221855E6,2.385515E5,1.5433072E5,2.6498825E5,1.926805E5,2.46915E4,3.7021875E4,3.78835E4,6.709437E4,6.1773656E4,8.7928875E4,9.43645E4,4.4978E4,2.2375E2,5.61625E3,1.151275E4,1.3275625E4,1.3388719E4,1.9979043E4,2.0613234E4,1.8044938E4,3.9968594E4,2.3470922E4,3.1572625E4,5.289025E4,2.9511875E4,3.968125E4,1.66745E4,2.91215E4,0E0,0E0,0E0,0E0,0E0,0E0,0E0,0E0,0E0,0E0,0E0,0E0,0E0,0E0,0E0,0E0,0E0,0E0,0E0,0E0,0E0,0E0,0E0,0E0,0E0,0E0,0E0,0E0,0E0,0E0,0E0,0E0],"parents":[2147483647,0,0,1,1,2,2,3,3,4,4,5,5,6,6,7,7,8,8,9,9,10,10,11,11,12,12,13,13,14,14,15,15,16,16,17,17,18,18,19,19,20,20,21,21,22,22,23,23,24,24,25,25,26,26,27,27,28,28,29,29,30,30],"right_children":[2,4,6,8,10,12,14,16,18,20,22,24,26,28,30,32,34,36,38,40,42,44,46,48,50,52,54,56,58,60,62,-1,-1,-1,-1,-1,-1,-1,-1,-1,-1,-1,-1,-1,-1,-1,-1,-1,-1,-1,-1,-1,-1,-1,-1,-1,-1,-1,-1,-1,-1,-1,-1],"split_conditions":[4.235126E-1,-4.1963813E-1,1.2666633E0,-1.0218886E0,5.493481E-2,6.8385935E-1,1.5224254E0,-1.3832389E0,-5.739897E-1,-5.8287814E-2,1.8261239E-1,9.017468E-1,9.05313E-1,-1.6028869E-1,3.7072906E-1,-1.6241392E0,-8.88452E-1,2.5272512E-1,1.9372314E-1,-2.1929067E-1,-4.6916896E-1,-4.5529857E-1,1.6717225E-2,5.493481E-2,1.0071925E0,9.607488E-1,1.3472117E-1,7.886801E-1,1.0071925E0,1.9417084E0,1.0071925E0,-5.1342735E0,-4.724651E0,-4.306645E0,-3.818375E0,-3.603E0,-2.9122734E0,-2.7774596E0,-2.0131767E0,-2.2146604E0,-1.4166507E0,-1.619446E0,-4.951099E-1,-1.0585012E0,-5.848823E-2,3.9093912E-1,1.5476183E0,5.945605E-2,1.52264E0,1.860524E0,3.6488907E0,2.2596073E0,3.8998659E0,3.4559116E0,5.0942464E0,3.0803542E0,4.68021E0,5.1776795E0,6.867119E0,6.0895157E0,7.610077E0,7.1720476E0,9.714055E0],"split_indices":[4,4,4,4,5,5,5,4,5,4,4,1,4,1,1,4,5,1,1,1,5,1,1,5,0,1,1,5,0,5,0,0,0,0,0,0,0,0,0,0,0,0,0,0,0,0,0,0,0,0,0,0,0,0,0,0,0,0,0,0,0,0,0],"split_type":[0,0,0,0,0,0,0,0,0,0,0,0,0,0,0,0,0,0,0,0,0,0,0,0,0,0,0,0,0,0,0,0,0,0,0,0,0,0,0,0,0,0,0,0,0,0,0,0,0,0,0,0,0,0,0,0,0,0,0,0,0,0,0],"sum_hessian":[1.2E4,7.314E3,4.686E3,4.333E3,2.981E3,2.849E3,1.837E3,2.24E3,2.093E3,1.599E3,1.382E3,1.341E3,1.508E3,1.215E3,6.22E2,9.69E2,1.271E3,1.1E3,9.93E2,8.6E2,7.39E2,8.4E2,5.42E2,1.039E3,3.02E2,6.83E2,8.25E2,6.1E2,6.05E2,3.99E2,2.23E2,1.86E2,7.83E2,7.58E2,5.13E2,6.6E2,4.4E2,6.01E2,3.92E2,4.36E2,4.24E2,2.29E2,5.1E2,3.61E2,4.79E2,2.87E2,2.55E2,2.44E2,7.95E2,1.44E2,1.58E2,5.29E2,1.54E2,4.64E2,3.61E2,1.68E2,4.42E2,3.03E2,3.02E2,2.6E2,1.39E2,1.09E2,1.14E2],"tree_param":{"num_deleted":"0","num_feature":"7","num_nodes":"63","size_leaf_vector":"1"}},{"base_weights":[1.5651131E-2,-2.2301739E1,3.4846394E1,-3.4659035E1,-8.046829E0,2.315415E1,5.295741E1,-4.1084396E1,-2.9145166E1,-1.5381181E1,-7.722127E-1,1.7016685E1,3.6073128E1,3.7931137E1,5.8904793E1,-4.328657E1,-3.848631E1,-3.221498E1,-2.4620972E1,-2.1571291E1,-1.2364943E1,-5.2284465E0,7.828191E0,1.0720022E1,2.3608822E1,2.8095888E1,4.2640865E1,2.871613E1,4.4199833E1,5.372883E1,7.3022156E1,-4.450034E0,-4.14609E0,-4.0278945E0,-3.6064441E0,-3.6085892E0,-3.0381837E0,-2.6556127E0,-1.8782309E0,-2.3965771E0,-1.4336389E0,-1.4849477E0,-6.6205215E-1,-8.551613E-1,3.0853865E-1,2.8212824E-1,1.2382615E0,3.7146935E-1,1.6307373E0,1.5196437E0,2.8957021E0,2.437312E0,3.9502056E0,3.378475E0,5.105192E0,7.607576E-1,3.1082869E0,3.0132203E0,4.7455535E0,4.9545803E0,6.752445E0,6.0707335E0,8.458082E0],"categories":[],"categories_nodes":[],"categories_segments":[],"categories_sizes":[],"default_left":[0,0,0,0,0,0,0,0,0,0,0,0,0,0,0,0,0,0,0,0,0,0,0,0,0,0,0,0,0,0,0,0,0,0,0,0,0,0,0,0,0,0,0,0,0,0,0,0,0,0,0,0,0,0,0,0,0,0,0,0,0,0,0],"id":6,"left_children":[1,3,5,7,9,11,13,15,17,19,21,23,25,27,29,31,33,35,37,39,41,43,45,47,49,51,53,55,57,59,61,-1,-1,-1,-1,-1,-1,-1,-1,-1,-1,-1,-1,-1,-1,-1,-1,-1,-1,-1,-1,-1,-1,-1,-1,-1,-1,-1,-1,-1,-1,-1,-1],"loss_changes":[9.329529E6,1.288274E6,9.912855E5,1.376115E5,1.8128705E5,2.25362E5,1.62022E5,8.67275E3,2.8539125E4,3.1324344E4,6.54624E4,8.002431E4,4.6845875E4,2.9000188E4,9.2165E4,3.045E2,2.185625E3,7.809125E3,9.1955E3,9.236484E3,1.6172016E4,3.1108162E4,1.3259551E4,3.872839E4,4.2031562E4,1.6744094E4,3.5594312E4,1.0504578E4,1.27680625E4,5.24E4,4.468525E4,0E0,0E0,0E0,0E0,0E0,0E0,0E0,0E0,0E0,0E0,0E0,0E0,0E0,0E0,0E0,0E0,0E0,0E0,0E0,0E0,0E0,0E0,0E0,0E0,0E0,0E0,0E0,0E0,0E0,0E0,0E0,0E0],"parents":[2147483647,0,0,1,1,2,2,3,3,4,4,5,5,6,6,7,7,8,8,9,9,10,10,11,11,12,12,13,13,14,14,15,15,16,16,17,17,18,18,19,19,20,20,21,21,22,22,23,23,24,24,25,25,26,26,27,27,28,28,29,29,30,30],"right_children":[2,4,6,8,10,12,14,16,18,20,22,24,26,28,30,32,34,36,38,40,42,44,46,48,50,52,54,56,58,60,62,-1,-1,-1,-1,-1,-1,-1,-1,-1,-1,-1,-1,-1,-1,-1,-1,-1,-1,-1,-1,-1,-1,-1,-1,-1,-1,-1,-1,-1,-1,-1,-1],"split_conditions":[4.235126E-1,-5.4008824E-1,1.2666633E0,-1.1423388E0,-5.8287814E-2,9.983216E-1,9.983216E-1,-1.3832389E0,-7.8098845E-1,-4.6916896E-1,3.6939707E-1,7.8486294E-1,-2.7829266E-1,-4.5529857E-1,8.427448E-1,-1.503689E0,1.6717225E-2,-1.0980935E0,7.837429E-1,9.607488E-1,4.8873302E-1,6.0673696E-1,-1.6028869E-1,-2.7829266E-1,-4.5529857E-1,1.5224254E0,1.0071925E0,2.6457632E-1,4.7421783E-1,1.8368876E0,1.0071925E0,-4.450034E0,-4.14609E0,-4.0278945E0,-3.6064441E0,-3.6085892E0,-3.0381837E0,-2.6556127E0,-1.8782309E0,-2.3965771E0,-1.4336389E0,-1.4849477E0,-6.6205215E-1,-8.551613E-1,3.0853865E-1,2.8212824E-1,1.2382615E0,3.7146935E-1,1.6307373E0,1.5196437E0,2.8957021E0,2.437312E0,3.9502056E0,3.378475E0,5.105192E0,7.607576E-1,3.1082869E0,3.0132203E0,4.7455535E0,4.9545803E0,6.752445E0,6.0707335E0,8.458082E0],"split_indices":[4,4,4,4,4,5,5,4,4,5,5,4,1,1,1,4,1,5,1,1,1,1,1,1,1,5,0,5,5,5,0,0,0,0,0,0,0,0,0,0,0,0,0,0,0,0,0,0,0,0,0,0,0,0,0,0,0,0,0,0,0,0,0],"split_type":[0,0,0,0,0,0,0,0,0,0,0,0,0,0,0,0,0,0,0,0,0,0,0,0,0,0,0,0,0,0,0,0,0,0,0,0,0,0,0,0,0,0,0,0,0,0,0,0,0,0,0,0,0,0,0,0,0,0,0,0,0,0,0],"sum_hessian":[1.2E4,7.314E3,4.686E3,3.917E3,3.397E3,2.849E3,1.837E3,1.806E3,2.111E3,1.691E3,1.706E3,1.933E3,9.16E2,5.23E2,1.314E3,9.69E2,8.37E2,1.254E3,8.57E2,5.52E2,1.139E3,1.124E3,5.82E2,9.9E2,9.43E2,4.16E2,5E2,2.14E2,3.09E2,9.65E2,3.49E2,5.68E2,4.01E2,4.72E2,3.65E2,3.97E2,8.57E2,6.41E2,2.16E2,4.13E2,1.39E2,7.94E2,3.45E2,8.03E2,3.21E2,2.78E2,3.04E2,4.4E2,5.5E2,3.68E2,5.75E2,3.16E2,1E2,2.46E2,2.54E2,2.2E1,1.92E2,6E1,2.49E2,7.44E2,2.21E2,1.72E2,1.77E2],"tree_param":{"num_deleted":"0","num_feature":"7","num_nodes":"63","size_leaf_vector":"1"}},{"base_weights":[1.6314596E-2,-1.8657755E1,3.3855404E1,-2.8844715E1,-2.396795E0,2.531366E1,5.1410255E1,-3.4906193E1,-2.1421505E1,-8.285027E0,4.4824023E0,1.9676317E1,3.733615E1,4.0208126E1,5.7872868E1,-3.801973E1,-3.1366858E1,-2.6399273E1,-1.8459627E1,-1.6747084E1,-5.9822016E0,-1.6696608E0,9.135902E0,1.0087678E1,2.3885082E1,2.9215519E1,4.332844E1,3.33409E1,4.9379486E1,5.3113197E1,7.1975365E1,-4.0058126E0,-3.6557133E0,-3.3178375E0,-2.83361E0,-2.9864566E0,-2.3598862E0,-2.1737022E0,-1.5390558E0,-2.0060978E0,-1.1231004E0,-1.0243515E0,-1.4256333E-1,-4.024168E-1,5.187983E-1,3.562178E-1,1.3252543E0,7.7478546E-1,2.434079E0,1.5786926E0,2.8771229E0,2.6236904E0,3.950877E0,3.4578054E0,5.121811E0,2.5070791E0,3.6988206E0,4.6174636E0,6.1709948E0,4.5678225E0,6.063585E0,6.196239E0,8.2747755E0],"categories":[],"categories_nodes":[],"categories_segments":[],"categories_sizes":[],"default_left":[0,0,0,0,0,0,0,0,0,0,0,0,0,0,0,0,0,0,0,0,0,0,0,0,0,0,0,0,0,0,0,0,0,0,0,0,0,0,0,0,0,0,0,0,0,0,0,0,0,0,0,0,0,0,0,0,0,0,0,0,0,0,0],"id":7,"left_children":[1,3,5,7,9,11,13,15,17,19,21,23,25,27,29,31,33,35,37,39,41,43,45,47,49,51,53,55,57,59,61,-1,-1,-1,-1,-1,-1,-1,-1,-1,-1,-1,-1,-1,-1,-1,-1,-1,-1,-1,-1,-1,-1,-1,-1,-1,-1,-1,-1,-1,-1,-1,-1],"loss_changes":[7.584226E6,1.281066E6,6.38681E5,2.1320625E5,1.2074592E5,1.9398275E5,9.87365E4,2.76355E4,3.1063812E4,3.1195367E4,3.937962E4,7.877675E4,4.330775E4,3.072625E4,5.544725E4,2.67075E3,5.812875E3,7.0198125E3,1.3194219E4,6.044633E3,2.4528438E4,9.595674E3,1.791875E4,1.9787914E4,5.3359312E4,1.0982E4,3.4473625E4,8.03125E3,5.7653125E3,3.4368375E4,1.8602625E4,0E0,0E0,0E0,0E0,0E0,0E0,0E0,0E0,0E0,0E0,0E0,0E0,0E0,0E0,0E0,0E0,0E0,0E0,0E0,0E0,0E0,0E0,0E0,0E0,0E0,0E0,0E0,0E0,0E0,0E0,0E0,0E0],"parents":[2147483647,0,0,1,1,2,2,3,3,4,4,5,5,6,6,7,7,8,8,9,9,10,10,11,11,12,12,13,13,14,14,15,15,16,16,17,17,18,18,19,19,20,20,21,21,22,22,23,23,24,24,25,25,26,26,27,27,28,28,29,29,30,30],"right_children":[2,4,6,8,10,12,14,16,18,20,22,24,26,28,30,32,34,36,38,40,42,44,46,48,50,52,54,56,58,60,62,-1,-1,-1,-1,-1,-1,-1,-1,-1,-1,-1,-1,-1,-1,-1,-1,-1,-1,-1,-1,-1,-1,-1,-1,-1,-1,-1,-1,-1,-1,-1,-1],"split_conditions":[5.439627E-1,-2.9918802E-1,1.3871135E0,-9.0143853E-1,1.5975557E-1,1.1031424E0,-5.733025E-1,-1.2627889E0,-6.788105E-1,-5.739897E-1,1.8261239E-1,3.6939707E-1,-3.372946E-1,1.4176046E0,1.7320669E0,-1.503689E0,3.117271E-1,-3.372946E-1,-2.7829266E-1,3.117271E-1,-2.1929067E-1,6.8385935E-1,-2.7829266E-1,1.3147607E0,-4.5529857E-1,1.6272461E0,1.0071925E0,1.5075635E0,2.046529E0,1.0071925E0,1.0071925E0,-4.0058126E0,-3.6557133E0,-3.3178375E0,-2.83361E0,-2.9864566E0,-2.3598862E0,-2.1737022E0,-1.5390558E0,-2.0060978E0,-1.1231004E0,-1.0243515E0,-1.4256333E-1,-4.024168E-1,5.187983E-1,3.562178E-1,1.3252543E0,7.7478546E-1,2.434079E0,1.5786926E0,2.8771229E0,2.6236904E0,3.950877E0,3.4578054E0,5.121811E0,2.5070791E0,3.6988206E0,4.6174636E0,6.1709948E0,4.5678225E0,6.063585E0,6.196239E0,8.2747755E0],"split_indices":[4,4,4,4,5,5,1,4,5,5,4,5,1,5,5,4,1,1,1,1,1,5,1,1,1,5,0,4,5,0,0,0,0,0,0,0,0,0,0,0,0,0,0,0,0,0,0,0,0,0,0,0,0,0,0,0,0,0,0,0,0,0,0],"split_type":[0,0,0,0,0,0,0,0,0,0,0,0,0,0,0,0,0,0,0,0,0,0,0,0,0,0,0,0,0,0,0,0,0,0,0,0,0,0,0,0,0,0,0,0,0,0,0,0,0,0,0,0,0,0,0,0,0,0,0,0,0,0,0],"sum_hessian":[1.2E4,7.733E3,4.267E3,4.754E3,2.979E3,2.872E3,1.395E3,2.615E3,2.139E3,1.605E3,1.374E3,1.957E3,9.15E2,5.13E2,8.82E2,1.386E3,1.229E3,7.95E2,1.344E3,3.42E2,1.263E3,5.92E2,7.82E2,5.98E2,1.359E3,3.91E2,5.24E2,2.96E2,2.17E2,6.63E2,2.19E2,5.68E2,8.18E2,7.63E2,4.66E2,3.51E2,4.44E2,6.47E2,6.97E2,2.12E2,1.3E2,6.52E2,6.11E2,4.41E2,1.51E2,3.33E2,4.49E2,5.15E2,8.3E1,5.13E2,8.46E2,3.06E2,8.5E1,2.51E2,2.73E2,9.3E1,2.03E2,1.76E2,4.1E1,3.37E2,3.26E2,1.17E2,1.02E2],"tree_param":{"num_deleted":"0","num_feature":"7","num_nodes":"63","size_leaf_vector":"1"}},{"base_weights":[1.7978285E-2,-2.0926712E1,2.453868E1,-2.9334923E1,-1.1073458E1,1.130256E1,3.8646057E1,-3.3342606E1,-2.5022219E1,-1.5667436E1,-6.116663E0,5.0503874E0,1.8868086E1,3.238724E1,5.0696342E1,-3.5109825E1,-3.1257233E1,-2.9293951E1,-2.3351934E1,-1.8802643E1,-1.2030782E1,-1.0879285E1,-2.1531653E0,2.9741163E0,1.6605688E1,1.2843089E1,2.3524559E1,2.8872923E1,4.610863E1,3.893006E1,5.5172375E1,-3.7825286E0,-3.441735E0,-3.424469E0,-3.0091279E0,-2.662272E0,-3.1721706E0,-2.46091E0,-1.8365803E0,-2.2998426E0,-1.6466144E0,-1.4460021E0,-6.4185464E-1,-1.2114661E0,-3.0304402E-1,-7.5953716E-1,9.130323E-2,-1.2082406E-1,8.013015E-1,8.481669E-1,2.4260643E0,1.0469403E0,2.1376483E0,2.083944E0,3.6540596E0,2.483346E0,3.856815E0,3.6072624E0,5.5195303E0,3.4375126E0,4.6898828E0,4.7120585E0,6.2913404E0],"categories":[],"categories_nodes":[],"categories_segments":[],"categories_sizes":[],"default_left":[0,0,0,0,0,0,0,0,0,0,0,0,0,0,0,0,0,0,0,0,0,0,0,0,0,0,0,0,0,0,0,0,0,0,0,0,0,0,0,0,0,0,0,0,0,0,0,0,0,0,0,0,0,0,0,0,0,0,0,0,0,0,0],"id":8,"left_children":[1,3,5,7,9,11,13,15,17,19,21,23,25,27,29,31,33,35,37,39,41,43,45,47,49,51,53,55,57,59,61,-1,-1,-1,-1,-1,-1,-1,-1,-1,-1,-1,-1,-1,-1,-1,-1,-1,-1,-1,-1,-1,-1,-1,-1,-1,-1,-1,-1,-1,-1,-1,-1],"loss_changes":[6.163969E6,5.359515E5,1.03197625E6,5.95215E4,6.780847E4,1.3490166E5,2.0018325E5,5.562E3,1.13455E4,1.7412156E4,2.708343E4,3.7474E4,3.5917188E4,8.3731E4,4.593625E4,5.22125E2,1.8885E3,2.2034688E3,7.176625E3,7.748375E3,9.709648E3,6.285258E3,1.3106135E4,2.7975508E4,1.4595211E4,1.1220617E4,2.4646875E4,5.414525E4,3.0656438E4,7.643625E3,3.81105E4,0E0,0E0,0E0,0E0,0E0,0E0,0E0,0E0,0E0,0E0,0E0,0E0,0E0,0E0,0E0,0E0,0E0,0E0,0E0,0E0,0E0,0E0,0E0,0E0,0E0,0E0,0E0,0E0,0E0,0E0,0E0,0E0],"parents":[2147483647,0,0,1,1,2,2,3,3,4,4,5,5,6,6,7,7,8,8,9,9,10,10,11,11,12,12,13,13,14,14,15,15,16,16,17,17,18,18,19,19,20,20,21,21,22,22,23,23,24,24,25,25,26,26,27,27,28,28,29,29,30,30],"right_children":[2,4,6,8,10,12,14,16,18,20,22,24,26,28,30,32,34,36,38,40,42,44,46,48,50,52,54,56,58,60,62,-1,-1,-1,-1,-1,-1,-1,-1,-1,-1,-1,-1,-1,-1,-1,-1,-1,-1,-1,-1,-1,-1,-1,-1,-1,-1,-1,-1,-1,-1,-1,-1],"split_conditions":[1.8261239E-1,-6.605383E-1,1.0257632E0,-1.1423388E0,-1.547067E-1,5.7903856E-1,1.4176046E0,-1.3832389E0,-1.0980935E0,-2.9918802E-1,-1.7873791E-1,1.2557586E0,6.644128E-1,1.0197507E0,-7.5030845E-1,-1.6241392E0,-1.4125558E0,1.0071925E0,1.0787528E0,-5.733025E-1,5.47735E-1,1.3737626E0,-6.323045E-1,5.439627E-1,1.0071925E0,9.607488E-1,1.2557586E0,1.5075635E0,1.0071925E0,1.6280136E0,1.0071925E0,-3.7825286E0,-3.441735E0,-3.424469E0,-3.0091279E0,-2.662272E0,-3.1721706E0,-2.46091E0,-1.8365803E0,-2.2998426E0,-1.6466144E0,-1.4460021E0,-6.4185464E-1,-1.2114661E0,-3.0304402E-1,-7.5953716E-1,9.130323E-2,-1.2082406E-1,8.013015E-1,8.481669E-1,2.4260643E0,1.0469403E0,2.1376483E0,2.083944E0,3.6540596E0,2.483346E0,3.856815E0,3.6072624E0,5.5195303E0,3.4375126E0,4.6898828E0,4.7120585E0,6.2913404E0],"split_indices":[4,4,4,4,5,5,5,4,5,4,4,1,4,1,1,4,5,0,1,1,1,1,1,4,0,1,1,4,0,4,0,0,0,0,0,0,0,0,0,0,0,0,0,0,0,0,0,0,0,0,0,0,0,0,0,0,0,0,0,0,0,0,0],"split_type":[0,0,0,0,0,0,0,0,0,0,0,0,0,0,0,0,0,0,0,0,0,0,0,0,0,0,0,0,0,0,0,0,0,0,0,0,0,0,0,0,0,0,0,0,0,0,0,0,0,0,0,0,0,0,0,0,0,0,0,0,0,0,0],"sum_hessian":[1.2E4,6.472E3,5.528E3,3.491E3,2.981E3,2.853E3,2.675E3,1.806E3,1.685E3,1.546E3,1.435E3,1.563E3,1.29E3,1.763E3,9.12E2,9.69E2,8.37E2,4.69E2,1.216E3,8.28E2,7.18E2,6.51E2,7.84E2,1.326E3,2.37E2,5.64E2,7.26E2,1.406E3,3.57E2,2.54E2,6.58E2,1.86E2,7.83E2,2.27E2,6.1E2,2.29E2,2.4E2,9.68E2,2.48E2,2.93E2,5.35E2,5E2,2.18E2,5.62E2,8.9E1,2.82E2,5.02E2,7.25E2,6.01E2,1.16E2,1.21E2,4.43E2,1.21E2,6.04E2,1.22E2,9.95E2,4.11E2,1.72E2,1.85E2,1.65E2,8.9E1,3.26E2,3.32E2],"tree_param":{"num_deleted":"0","num_feature":"7","num_nodes":"63","size_leaf_vector":"1"}},{"base_weights":[1.7469402E-2,-1.8838985E1,2.20934E1,-2.6408243E1,-9.968868E0,1.0176816E1,3.4794384E1,-3.0015905E1,-2.2526005E1,-1.5028706E1,-6.242514E0,1.2804958E0,1.4545291E1,2.8508621E1,4.4987705E1,-3.160629E1,-2.8139185E1,-2.3623524E1,-1.6954344E1,-2.1655764E1,-1.3642159E1,-1.083061E1,-2.940732E0,-8.765466E0,3.3808954E0,9.357813E0,1.963706E1,2.1196716E1,3.4181633E1,3.9197536E1,5.5478054E1,-3.2800183E0,-3.0339696E0,-2.9868307E0,-2.6347184E0,-2.5101511E0,-1.9830455E0,-1.7850401E0,-9.9197453E-1,-1.7849741E0,-2.5771873E0,-1.5282215E0,-9.0445864E-1,-1.5525435E0,-8.201236E-1,-7.325054E-1,8.815208E-3,-1.5250087E0,-6.1632794E-1,-2.7561435E-1,6.641714E-1,7.1326053E-1,1.8582687E0,1.6190773E0,2.796827E0,1.3468208E0,2.5293434E0,3.080879E0,4.5845895E0,3.5139184E0,4.99896E0,4.641729E0,6.448166E0],"categories":[],"categories_nodes":[],"categories_segments":[],"categories_sizes":[],"default_left":[0,0,0,0,0,0,0,0,0,0,0,0,0,0,0,0,0,0,0,0,0,0,0,0,0,0,0,0,0,0,0,0,0,0,0,0,0,0,0,0,0,0,0,0,0,0,0,0,0,0,0,0,0,0,0,0,0,0,0,0,0,0,0],"id":9,"left_children":[1,3,5,7,9,11,13,15,17,19,21,23,25,27,29,31,33,35,37,39,41,43,45,47,49,51,53,55,57,59,61,-1,-1,-1,-1,-1,-1,-1,-1,-1,-1,-1,-1,-1,-1,-1,-1,-1,-1,-1,-1,-1,-1,-1,-1,-1,-1,-1,-1,-1,-1,-1,-1],"loss_changes":[4.9961175E6,4.343355E5,8.36473E5,4.8232E4,5.613103E4,1.1089734E5,1.7017625E5,4.503875E3,9.9093125E3,1.1319125E4,2.6009094E4,1.9885238E4,5.0371625E4,6.805E4,5.9720375E4,4.71625E2,1.8096875E3,7.3845E3,1.5941875E3,2.9394922E3,7.7640156E3,8.748336E3,1.3293527E4,2.656503E3,1.5607478E4,1.936836E4,2.7254E4,2.2677219E4,3.5254125E4,2.7150125E4,2.6375625E4,0E0,0E0,0E0,0E0,0E0,0E0,0E0,0E0,0E0,0E0,0E0,0E0,0E0,0E0,0E0,0E0,0E0,0E0,0E0,0E0,0E0,0E0,0E0,0E0,0E0,0E0,0E0,0E0,0E0,0E0,0E0,0E0],"parents":[2147483647,0,0,1,1,2,2,3,3,4,4,5,5,6,6,7,7,8,8,9,9,10,10,11,11,12,12,13,13,14,14,15,15,16,16,17,17,18,18,19,19,20,20,21,21,22,22,23,23,24,24,25,25,26,26,27,27,28,28,29,29,30,30],"right_children":[2,4,6,8,10,12,14,16,18,20,22,24,26,28,30,32,34,36,38,40,42,44,46,48,50,52,54,56,58,60,62,-1,-1,-1,-1,-1,-1,-1,-1,-1,-1,-1,-1,-1,-1,-1,-1,-1,-1,-1,-1,-1,-1,-1,-1,-1,-1,-1,-1,-1,-1,-1,-1],"split_conditions":[1.8261239E-1,-6.605383E-1,1.0257632E0,-1.1423388E0,-2.9918802E-1,2.6457632E-1,1.5075635E0,-1.3832389E0,-2.5952744E-1,-8.88452E-1,-1.547067E-1,-3.643482E-1,6.644128E-1,9.983216E-1,3.7072906E-1,-1.307735E0,-2.1929067E-1,7.247409E-1,1.5507685E0,1.0071925E0,7.837429E-1,-6.913065E-1,-5.143005E-1,-6.788105E-1,-6.323045E-1,1.0787528E0,6.6573894E-1,-5.733025E-1,1.0197507E0,1.7320669E0,1.0071925E0,-3.2800183E0,-3.0339696E0,-2.9868307E0,-2.6347184E0,-2.5101511E0,-1.9830455E0,-1.7850401E0,-9.9197453E-1,-1.7849741E0,-2.5771873E0,-1.5282215E0,-9.0445864E-1,-1.5525435E0,-8.201236E-1,-7.325054E-1,8.815208E-3,-1.5250087E0,-6.1632794E-1,-2.7561435E-1,6.641714E-1,7.1326053E-1,1.8582687E0,1.6190773E0,2.796827E0,1.3468208E0,2.5293434E0,3.080879E0,4.5845895E0,3.5139184E0,4.99896E0,4.641729E0,6.448166E0],"split_indices":[4,4,4,4,4,5,4,4,5,5,5,5,4,5,1,5,1,1,1,0,1,1,1,5,1,1,1,1,1,5,0,0,0,0,0,0,0,0,0,0,0,0,0,0,0,0,0,0,0,0,0,0,0,0,0,0,0,0,0,0,0,0,0],"split_type":[0,0,0,0,0,0,0,0,0,0,0,0,0,0,0,0,0,0,0,0,0,0,0,0,0,0,0,0,0,0,0,0,0,0,0,0,0,0,0,0,0,0,0,0,0,0,0,0,0,0,0,0,0,0,0,0,0,0,0,0,0,0,0],"sum_hessian":[1.2E4,6.472E3,5.528E3,3.491E3,2.981E3,2.853E3,2.675E3,1.806E3,1.685E3,1.263E3,1.718E3,9.4E2,1.913E3,1.657E3,1.018E3,9.69E2,8.37E2,1.405E3,2.8E2,2.16E2,1.047E3,7.18E2,1E3,1.62E2,7.78E2,9.49E2,9.64E2,7.26E2,9.31E2,6.59E2,3.59E2,4.86E2,4.83E2,4.18E2,4.19E2,1.007E3,3.98E2,2.47E2,3.3E1,1.15E2,1.01E2,7.7E2,2.77E2,2.56E2,4.62E2,4.08E2,5.92E2,4.5E1,1.17E2,2.7E2,5.08E2,7.66E2,1.83E2,6.84E2,2.8E2,2.53E2,4.73E2,7.25E2,2.06E2,4.82E2,1.77E2,1.82E2,1.77E2],"tree_param":{"num_deleted":"0","num_feature":"7","num_nodes":"63","size_leaf_vector":"1"}},{"base_weights":[1.6329866E-2,-1.3645713E1,2.4773176E1,-2.1938728E1,-3.0736527E0,1.8361374E1,3.7951065E1,-2.5561533E1,-1.6412727E1,-5.992303E0,5.8742695E0,1.4653059E1,2.903054E1,3.3867584E1,4.974062E1,-2.7775347E1,-2.3044361E1,-1.7710749E1,-1.050239E1,-9.361627E0,-1.4533285E0,3.2989533E0,1.1482377E1,8.06646E0,1.8773577E1,2.2421803E1,3.3690422E1,2.4693668E1,3.836634E1,4.0771095E1,5.8432266E1,-2.888581E0,-2.5947425E0,-2.4719844E0,-2.0907114E0,-2.0823238E0,-1.5624645E0,-1.1701388E0,-5.376982E-1,-1.0702266E0,-2.5371572E-1,-9.291425E-1,6.324697E-2,-1.5955007E-1,5.9336615E-1,5.4969865E-1,1.4724404E0,-2.0530283E-2,1.0532656E0,1.4946107E0,2.5486515E0,2.012383E0,3.0738447E0,2.5868871E0,4.0510974E0,1.2562087E0,2.6852615E0,3.6031914E0,5.258116E0,2.0029294E0,4.282407E0,3.668579E0,6.156278E0],"categories":[],"categories_nodes":[],"categories_segments":[],"categories_sizes":[],"default_left":[0,0,0,0,0,0,0,0,0,0,0,0,0,0,0,0,0,0,0,0,0,0,0,0,0,0,0,0,0,0,0,0,0,0,0,0,0,0,0,0,0,0,0,0,0,0,0,0,0,0,0,0,0,0,0,0,0,0,0,0,0,0,0],"id":10,"left_children":[1,3,5,7,9,11,13,15,17,19,21,23,25,27,29,31,33,35,37,39,41,43,45,47,49,51,53,55,57,59,61,-1,-1,-1,-1,-1,-1,-1,-1,-1,-1,-1,-1,-1,-1,-1,-1,-1,-1,-1,-1,-1,-1,-1,-1,-1,-1,-1,-1,-1,-1,-1,-1],"loss_changes":[4.0594252E6,6.780054E5,3.599235E5,8.634575E4,8.885521E4,1.13243875E5,6.552225E4,1.39375E4,1.3001719E4,3.921365E4,1.2050615E4,5.776575E4,2.2033562E4,4.1974625E4,2.5449312E4,2.065875E3,3.8876875E3,8.81675E3,1.8544336E3,1.3440391E4,1.7891342E4,7.424355E3,5.0225195E3,1.6791188E4,3.332903E4,5.2868594E3,2.1998062E4,8.698734E3,2.1201125E4,6.7644688E3,9.9274375E3,0E0,0E0,0E0,0E0,0E0,0E0,0E0,0E0,0E0,0E0,0E0,0E0,0E0,0E0,0E0,0E0,0E0,0E0,0E0,0E0,0E0,0E0,0E0,0E0,0E0,0E0,0E0,0E0,0E0,0E0,0E0,0E0],"parents":[2147483647,0,0,1,1,2,2,3,3,4,4,5,5,6,6,7,7,8,8,9,9,10,10,11,11,12,12,13,13,14,14,15,15,16,16,17,17,18,18,19,19,20,20,21,21,22,22,23,23,24,24,25,25,26,26,27,27,28,28,29,29,30,30],"right_children":[2,4,6,8,10,12,14,16,18,20,22,24,26,28,30,32,34,36,38,40,42,44,46,48,50,52,54,56,58,60,62,-1,-1,-1,-1,-1,-1,-1,-1,-1,-1,-1,-1,-1,-1,-1,-1,-1,-1,-1,-1,-1,-1,-1,-1,-1,-1,-1,-1,-1,-1,-1,-1],"split_conditions":[5.439627E-1,-4.1963813E-1,1.3871135E0,-9.0143853E-1,4.7421783E-1,1.2079631E0,8.427448E-1,-1.2627889E0,-4.9885944E-2,6.216229E-2,8.9350086E-1,-4.5529857E-1,-3.962966E-1,1.1031424E0,1.0071925E0,-1.0980935E0,7.57192E-2,-4.5529857E-1,1.0197507E0,1.2557586E0,-3.643482E-1,-5.143005E-1,-6.323045E-1,2.6457632E-1,4.7275272E-1,1.7320669E0,1.0071925E0,4.7421783E-1,2.046529E0,6.8385935E-1,7.886801E-1,-2.888581E0,-2.5947425E0,-2.4719844E0,-2.0907114E0,-2.0823238E0,-1.5624645E0,-1.1701388E0,-5.376982E-1,-1.0702266E0,-2.5371572E-1,-9.291425E-1,6.324697E-2,-1.5955007E-1,5.9336615E-1,5.4969865E-1,1.4724404E0,-2.0530283E-2,1.0532656E0,1.4946107E0,2.5486515E0,2.012383E0,3.0738447E0,2.5868871E0,4.0510974E0,1.2562087E0,2.6852615E0,3.6031914E0,5.258116E0,2.0029294E0,4.282407E0,3.668579E0,6.156278E0],"split_indices":[4,4,4,4,5,5,1,4,5,4,5,1,1,5,0,5,1,1,1,1,5,1,1,5,3,5,0,5,5,5,5,0,0,0,0,0,0,0,0,0,0,0,0,0,0,0,0,0,0,0,0,0,0,0,0,0,0,0,0,0,0,0,0],"split_type":[0,0,0,0,0,0,0,0,0,0,0,0,0,0,0,0,0,0,0,0,0,0,0,0,0,0,0,0,0,0,0,0,0,0,0,0,0,0,0,0,0,0,0,0,0,0,0,0,0,0,0,0,0,0,0,0,0,0,0,0,0,0,0],"sum_hessian":[1.2E4,7.733E3,4.267E3,4.333E3,3.4E3,2.872E3,1.395E3,2.615E3,1.718E3,2.564E3,8.36E2,2.133E3,7.39E2,1.039E3,3.56E2,1.386E3,1.229E3,1.407E3,3.11E2,1.471E3,1.093E3,5.74E2,2.62E2,8.22E2,1.311E3,3.08E2,4.31E2,3.44E2,6.95E2,1.78E2,1.78E2,8.53E2,5.33E2,6.83E2,5.46E2,5.61E2,8.46E2,2.51E2,6E1,1.229E3,2.42E2,2.29E2,8.64E2,2.01E2,3.73E2,9.3E1,1.69E2,1.89E2,6.33E2,8.37E2,4.74E2,2.44E2,6.4E1,2.03E2,2.28E2,5.3E1,2.91E2,6E2,9.5E1,1.7E1,1.61E2,2.4E1,1.54E2],"tree_param":{"num_deleted":"0","num_feature":"7","num_nodes":"63","size_leaf_vector":"1"}},{"base_weights":[1.7244646E-2,-1.5292554E1,1.7940975E1,-2.1435553E1,-8.093813E0,6.5717177E0,2.7045351E1,-2.4356262E1,-1.8292517E1,-1.1549285E1,-4.365604E0,2.3930526E0,1.2274901E1,2.1571178E1,3.581917E1,-2.6546705E1,-2.3330662E1,-2.259246E1,-1.7074785E1,-1.7474314E1,-9.989803E0,-5.9503694E0,2.2867205E0,-2.3897019E-1,8.603449E0,9.937694E0,2.0024185E1,1.2710062E1,2.4622913E1,3.180393E1,4.5265686E1,-2.8095708E0,-2.572109E0,-2.5658505E0,-2.232915E0,-2.0072515E0,-2.486087E0,-1.7888806E0,-1.2323664E0,-1.4055744E0,-2.1229951E0,-1.1203669E0,-3.8114634E-1,-9.8958874E-1,-3.7639397E-1,4.351841E-2,9.270364E-1,3.1453007E-1,-3.9640102E-1,3.1554282E-1,1.4327066E0,8.315787E-1,1.8560486E0,9.515972E-1,2.8406615E0,1.9729804E-1,1.484733E0,2.252569E0,3.9354818E0,2.7919962E0,4.055148E0,3.672453E0,5.1900506E0],"categories":[],"categories_nodes":[],"categories_segments":[],"categories_sizes":[],"default_left":[0,0,0,0,0,0,0,0,0,0,0,0,0,0,0,0,0,0,0,0,0,0,0,0,0,0,0,0,0,0,0,0,0,0,0,0,0,0,0,0,0,0,0,0,0,0,0,0,0,0,0,0,0,0,0,0,0,0,0,0,0,0,0],"id":11,"left_children":[1,3,5,7,9,11,13,15,17,19,21,23,25,27,29,31,33,35,37,39,41,43,45,47,49,51,53,55,57,59,61,-1,-1,-1,-1,-1,-1,-1,-1,-1,-1,-1,-1,-1,-1,-1,-1,-1,-1,-1,-1,-1,-1,-1,-1,-1,-1,-1,-1,-1,-1,-1,-1],"loss_changes":[3.2934532E6,2.860745E5,5.72129E5,3.1610625E4,3.8365844E4,5.85966E4,1.466775E5,3.440125E3,8.4425E3,1.41196875E4,1.5152457E4,2.3229586E4,1.8637156E4,5.0877188E4,4.3242E4,5.0625E0,2.315625E3,1.6102812E3,4.8769375E3,3.8228906E3,9.159391E3,9.969605E3,3.5777056E3,1.2606405E4,1.3144943E4,1.10479375E4,2.0869922E4,1.1146383E4,4.2584312E4,2.706725E4,1.7871438E4,0E0,0E0,0E0,0E0,0E0,0E0,0E0,0E0,0E0,0E0,0E0,0E0,0E0,0E0,0E0,0E0,0E0,0E0,0E0,0E0,0E0,0E0,0E0,0E0,0E0,0E0,0E0,0E0,0E0,0E0,0E0,0E0],"parents":[2147483647,0,0,1,1,2,2,3,3,4,4,5,5,6,6,7,7,8,8,9,9,10,10,11,11,12,12,13,13,14,14,15,15,16,16,17,17,18,18,19,19,20,20,21,21,22,22,23,23,24,24,25,25,26,26,27,27,28,28,29,29,30,30],"right_children":[2,4,6,8,10,12,14,16,18,20,22,24,26,28,30,32,34,36,38,40,42,44,46,48,50,52,54,56,58,60,62,-1,-1,-1,-1,-1,-1,-1,-1,-1,-1,-1,-1,-1,-1,-1,-1,-1,-1,-1,-1,-1,-1,-1,-1,-1,-1,-1,-1,-1,-1,-1,-1],"split_conditions":[1.8261239E-1,-6.605383E-1,9.05313E-1,-1.1423388E0,-1.547067E-1,5.7903856E-1,1.3127838E0,-1.503689E0,-1.2029142E0,-8.88452E-1,5.7903856E-1,5.47735E-1,9.607488E-1,5.7903856E-1,1.6280136E0,-1.6241392E0,-1.4125558E0,1.0071925E0,1.3737626E0,1.0071925E0,1.2557586E0,-6.323045E-1,8.427448E-1,1.0071925E0,1.0071925E0,1.3127838E0,1.0071925E0,5.493481E-2,1.4327645E0,7.247409E-1,-3.372946E-1,-2.8095708E0,-2.572109E0,-2.5658505E0,-2.232915E0,-2.0072515E0,-2.486087E0,-1.7888806E0,-1.2323664E0,-1.4055744E0,-2.1229951E0,-1.1203669E0,-3.8114634E-1,-9.8958874E-1,-3.7639397E-1,4.351841E-2,9.270364E-1,3.1453007E-1,-3.9640102E-1,3.1554282E-1,1.4327066E0,8.315787E-1,1.8560486E0,9.515972E-1,2.8406615E0,1.9729804E-1,1.484733E0,2.252569E0,3.9354818E0,2.7919962E0,4.055148E0,3.672453E0,5.1900506E0],"split_indices":[4,4,4,4,5,5,5,4,5,5,5,1,1,5,4,4,5,0,1,0,1,1,1,0,0,5,0,5,1,1,1,0,0,0,0,0,0,0,0,0,0,0,0,0,0,0,0,0,0,0,0,0,0,0,0,0,0,0,0,0,0,0,0],"split_type":[0,0,0,0,0,0,0,0,0,0,0,0,0,0,0,0,0,0,0,0,0,0,0,0,0,0,0,0,0,0,0,0,0,0,0,0,0,0,0,0,0,0,0,0,0,0,0,0,0,0,0,0,0,0,0,0,0,0,0,0,0,0,0],"sum_hessian":[1.2E4,6.472E3,5.528E3,3.491E3,2.981E3,2.459E3,3.069E3,1.806E3,1.685E3,1.546E3,1.435E3,1.42E3,1.039E3,1.892E3,1.177E3,5.68E2,1.238E3,3.68E2,1.317E3,3.2E2,1.226E3,1.159E3,2.76E2,9.98E2,4.22E2,8E2,2.39E2,4.86E2,1.406E3,8.29E2,3.48E2,1.86E2,3.82E2,3.65E2,8.73E2,1.79E2,1.89E2,1.122E3,1.95E2,1.7E2,1.5E2,1.024E3,2.02E2,4.12E2,7.47E2,2.19E2,5.7E1,5.23E2,4.75E2,2.17E2,2.05E2,6.75E2,1.25E2,1.07E2,1.32E2,8.1E1,4.05E2,1.233E3,1.73E2,5.77E2,2.52E2,1.55E2,1.93E2],"tree_param":{"num_deleted":"0","num_feature":"7","num_nodes":"63","size_leaf_vector":"1"}},{"base_weights":[1.6237527E-2,-1.1093452E1,2.0147991E1,-1.715926E1,-1.4108977E0,1.483512E1,3.1067568E1,-2.0756744E1,-1.275357E1,-5.669626E0,2.2707622E0,9.309865E0,1.9760952E1,2.1850346E1,3.5286945E1,-2.2535141E1,-1.8734474E1,-1.7865389E1,-1.1494947E1,-1.2378621E1,-4.177023E0,-2.4553216E0,4.6294613E0,6.867505E0,1.716337E1,1.4495779E1,2.4027483E1,1.4566839E1,2.5479671E1,3.1191563E1,4.4677658E1,-2.346526E0,-2.1005452E0,-1.9548022E0,-1.5225097E0,-1.4845883E0,-2.047981E0,-1.409456E0,-9.756622E-1,-1.5079669E0,-8.007806E-1,-8.242652E-1,-1.758074E-1,1.4729272E-1,-6.201906E-1,2.3419602E-1,1.0867909E0,-1.3531357E-2,9.142251E-1,1.0483605E0,2.2888958E0,1.1291996E0,1.9849821E0,1.9103311E0,3.25539E0,2.0100899E0,9.924082E-1,2.121329E0,3.01829E0,2.8033123E0,4.001567E0,4.266984E0,7.417466E0],"categories":[],"categories_nodes":[],"categories_segments":[],"categories_sizes":[],"default_left":[0,0,0,0,0,0,0,0,0,0,0,0,0,0,0,0,0,0,0,0,0,0,0,0,0,0,0,0,0,0,0,0,0,0,0,0,0,0,0,0,0,0,0,0,0,0,0,0,0,0,0,0,0,0,0,0,0,0,0,0,0,0,0],"id":12,"left_children":[1,3,5,7,9,11,13,15,17,19,21,23,25,27,29,31,33,35,37,39,41,43,45,47,49,51,53,55,57,59,61,-1,-1,-1,-1,-1,-1,-1,-1,-1,-1,-1,-1,-1,-1,-1,-1,-1,-1,-1,-1,-1,-1,-1,-1,-1,-1,-1,-1,-1,-1,-1,-1],"loss_changes":[2.6843375E6,4.5421312E5,2.47144E5,7.509925E4,4.673686E4,7.800894E4,5.3520875E4,8.985875E3,1.3563094E4,1.3787465E4,1.7836074E4,2.589168E4,3.3752125E4,1.1286344E4,3.537275E4,1.4805625E3,3.2140625E3,3.0194531E3,7.635125E3,2.842496E3,1.1118219E4,7.8535713E3,1.5201129E4,1.6504336E4,1.2036875E4,1.14743125E4,3.451997E4,3.6288145E3,5.2389844E3,1.7523562E4,1.38916875E4,0E0,0E0,0E0,0E0,0E0,0E0,0E0,0E0,0E0,0E0,0E0,0E0,0E0,0E0,0E0,0E0,0E0,0E0,0E0,0E0,0E0,0E0,0E0,0E0,0E0,0E0,0E0,0E0,0E0,0E0,0E0,0E0],"parents":[2147483647,0,0,1,1,2,2,3,3,4,4,5,5,6,6,7,7,8,8,9,9,10,10,11,11,12,12,13,13,14,14,15,15,16,16,17,17,18,18,19,19,20,20,21,21,22,22,23,23,24,24,25,25,26,26,27,27,28,28,29,29,30,30],"right_children":[2,4,6,8,10,12,14,16,18,20,22,24,26,28,30,32,34,36,38,40,42,44,46,48,50,52,54,56,58,60,62,-1,-1,-1,-1,-1,-1,-1,-1,-1,-1,-1,-1,-1,-1,-1,-1,-1,-1,-1,-1,-1,-1,-1,-1,-1,-1,-1,-1,-1,-1,-1,-1],"split_conditions":[5.439627E-1,-2.9918802E-1,1.3871135E0,-9.0143853E-1,5.493481E-2,7.886801E-1,-6.913065E-1,-1.2627889E0,-9.932727E-1,-6.788105E-1,-6.323045E-1,8.427448E-1,-2.7829266E-1,1.1031424E0,6.0603356E-1,-1.0980935E0,-4.6916896E-1,1.0071925E0,-4.5529857E-1,3.117271E-1,-6.323045E-1,1.0071925E0,8.725953E-1,1.5975557E-1,1.0071925E0,1.3127838E0,5.393932E-1,1.0071925E0,1.6280136E0,1.7320669E0,2.15135E0,-2.346526E0,-2.1005452E0,-1.9548022E0,-1.5225097E0,-1.4845883E0,-2.047981E0,-1.409456E0,-9.756622E-1,-1.5079669E0,-8.007806E-1,-8.242652E-1,-1.758074E-1,1.4729272E-1,-6.201906E-1,2.3419602E-1,1.0867909E0,-1.3531357E-2,9.142251E-1,1.0483605E0,2.2888958E0,1.1291996E0,1.9849821E0,1.9103311E0,3.25539E0,2.0100899E0,9.924082E-1,2.121329E0,3.01829E0,2.8033123E0,4.001567E0,4.266984E0,7.417466E0],"split_indices":[4,4,4,4,5,5,1,4,5,5,1,1,1,5,3,5,5,0,1,1,1,0,3,5,0,5,3,0,4,5,5,0,0,0,0,0,0,0,0,0,0,0,0,0,0,0,0,0,0,0,0,0,0,0,0,0,0,0,0,0,0,0,0],"split_type":[0,0,0,0,0,0,0,0,0,0,0,0,0,0,0,0,0,0,0,0,0,0,0,0,0,0,0,0,0,0,0,0,0,0,0,0,0,0,0,0,0,0,0,0,0,0,0,0,0,0,0,0,0,0,0,0,0,0,0,0,0,0,0],"sum_hessian":[1.2E4,7.733E3,4.267E3,4.754E3,2.979E3,2.872E3,1.395E3,2.615E3,2.139E3,1.381E3,1.598E3,1.355E3,1.517E3,4.4E2,9.55E2,1.386E3,1.229E3,4.2E2,1.719E3,2.5E2,1.131E3,5.32E2,1.066E3,1.035E3,3.2E2,6.81E2,8.36E2,1.48E2,2.92E2,6.68E2,2.87E2,8.53E2,5.33E2,9.94E2,2.35E2,1.98E2,2.22E2,6.86E2,1.033E3,1.53E2,9.7E1,4.21E2,7.1E2,2.6E2,2.72E2,7.81E2,2.85E2,2.54E2,7.81E2,1.49E2,1.71E2,4.28E2,2.53E2,5.32E2,3.04E2,6.6E1,8.2E1,1.56E2,1.36E2,4.95E2,1.73E2,2.71E2,1.6E1],"tree_param":{"num_deleted":"0","num_feature":"7","num_nodes":"63","size_leaf_vector":"1"}},{"base_weights":[1.6517635E-2,-1.24418545E1,1.4601981E1,-1.813538E1,-7.3318872E0,5.292458E0,2.2056973E1,-2.0284834E1,-1.6344675E1,-1.0580827E1,-4.124043E0,-1.974649E-1,8.285831E0,1.8616652E1,3.208175E1,-2.101484E1,-1.8443863E1,-1.9602686E1,-1.5415552E1,-1.2872115E1,-8.454195E0,-5.338537E0,2.136656E0,-7.175551E0,1.3393612E0,6.786761E0,1.8452122E1,1.6667416E1,3.0466127E1,2.8427738E1,4.198114E1,-1.9927256E0,-2.2147574E0,-2.0340683E0,-1.7065109E0,-1.7682575E0,-2.1327646E0,-1.595374E0,-1.0194505E0,-1.582836E0,-1.1031903E0,-9.6795386E-1,-4.511609E-1,-6.427853E-1,1.369391E-1,-3.8200206E-1,8.471813E-1,-3.262675E-1,-1.0806612E0,-3.2134995E-1,3.7744644E-1,5.519592E-1,1.4162834E0,8.400941E-1,2.5706365E0,1.1271445E0,2.0005057E0,2.7068193E0,4.1108556E0,2.5700538E0,3.7565465E0,3.8879E0,5.91946E0],"categories":[],"categories_nodes":[],"categories_segments":[],"categories_sizes":[],"default_left":[0,0,0,0,0,0,0,0,0,0,0,0,0,0,0,0,0,0,0,0,0,0,0,0,0,0,0,0,0,0,0,0,0,0,0,0,0,0,0,0,0,0,0,0,0,0,0,0,0,0,0,0,0,0,0,0,0,0,0,0,0,0,0],"id":13,"left_children":[1,3,5,7,9,11,13,15,17,19,21,23,25,27,29,31,33,35,37,39,41,43,45,47,49,51,53,55,57,59,61,-1,-1,-1,-1,-1,-1,-1,-1,-1,-1,-1,-1,-1,-1,-1,-1,-1,-1,-1,-1,-1,-1,-1,-1,-1,-1,-1,-1,-1,-1,-1,-1],"loss_changes":[2.180897E6,1.8819069E5,3.8360925E5,1.14503125E4,3.5526984E4,4.0427758E4,1.05282375E5,1.476375E3,4.7681875E3,8.1504375E3,1.3081963E4,9.328856E3,2.4136844E4,5.2339188E4,2.7129625E4,7.73375E2,7.0421875E2,8.417344E2,3.51275E3,4.2536406E3,4.217289E3,1.0530965E4,1.0598578E4,2.19538E3,7.916936E3,1.290443E4,1.46584375E4,3.519975E4,1.0531531E4,1.3363781E4,8.858844E3,0E0,0E0,0E0,0E0,0E0,0E0,0E0,0E0,0E0,0E0,0E0,0E0,0E0,0E0,0E0,0E0,0E0,0E0,0E0,0E0,0E0,0E0,0E0,0E0,0E0,0E0,0E0,0E0,0E0,0E0,0E0,0E0],"parents":[2147483647,0,0,1,1,2,2,3,3,4,4,5,5,6,6,7,7,8,8,9,9,10,10,11,11,12,12,13,13,14,14,15,15,16,16,17,17,18,18,19,19,20,20,21,21,22,22,23,23,24,24,25,25,26,26,27,27,28,28,29,29,30,30],"right_children":[2,4,6,8,10,12,14,16,18,20,22,24,26,28,30,32,34,36,38,40,42,44,46,48,50,52,54,56,58,60,62,-1,-1,-1,-1,-1,-1,-1,-1,-1,-1,-1,-1,-1,-1,-1,-1,-1,-1,-1,-1,-1,-1,-1,-1,-1,-1,-1,-1,-1,-1,-1,-1],"split_conditions":[1.8261239E-1,-7.8098845E-1,9.05313E-1,-1.2627889E0,-2.9918802E-1,2.6457632E-1,1.5224254E0,5.47735E-1,-1.307735E0,-4.6916896E-1,1.1967567E0,-3.643482E-1,1.4327645E0,1.6280136E0,7.3931444E-1,1.0071925E0,-1.503689E0,1.0071925E0,1.6687725E0,-5.143005E-1,7.837429E-1,5.7903856E-1,1.0071925E0,1.0071925E0,-6.323045E-1,1.2079631E0,1.0071925E0,-4.5529857E-1,1.1377547E0,2.046529E0,2.15135E0,-1.9927256E0,-2.2147574E0,-2.0340683E0,-1.7065109E0,-1.7682575E0,-2.1327646E0,-1.595374E0,-1.0194505E0,-1.582836E0,-1.1031903E0,-9.6795386E-1,-4.511609E-1,-6.427853E-1,1.369391E-1,-3.8200206E-1,8.471813E-1,-3.262675E-1,-1.0806612E0,-3.2134995E-1,3.7744644E-1,5.519592E-1,1.4162834E0,8.400941E-1,2.5706365E0,1.1271445E0,2.0005057E0,2.7068193E0,4.1108556E0,2.5700538E0,3.7565465E0,3.8879E0,5.91946E0],"split_indices":[4,4,4,4,4,5,5,1,5,5,1,5,1,4,3,0,4,0,1,1,1,5,0,0,1,5,0,1,1,5,5,0,0,0,0,0,0,0,0,0,0,0,0,0,0,0,0,0,0,0,0,0,0,0,0,0,0,0,0,0,0,0,0],"split_type":[0,0,0,0,0,0,0,0,0,0,0,0,0,0,0,0,0,0,0,0,0,0,0,0,0,0,0,0,0,0,0,0,0,0,0,0,0,0,0,0,0,0,0,0,0,0,0,0,0,0,0,0,0,0,0,0,0,0,0,0,0,0,0],"sum_hessian":[1.2E4,6.472E3,5.528E3,3.06E3,3.412E3,2.459E3,3.069E3,1.386E3,1.674E3,1.694E3,1.718E3,8.68E2,1.591E3,2.287E3,7.82E2,9.85E2,4.01E2,3.67E2,1.307E3,8.13E2,8.81E2,1.439E3,2.79E2,1.56E2,7.12E2,1.388E3,2.03E2,1.966E3,3.21E2,5.74E2,2.08E2,5.12E2,4.73E2,1.63E2,2.38E2,1.79E2,1.88E2,1.183E3,1.24E2,3.09E2,5.04E2,6.71E2,2.1E2,1.238E3,2.01E2,1.44E2,1.35E2,7.6E1,8E1,2.48E2,4.64E2,1.186E3,2.02E2,8.6E1,1.17E2,7.53E2,1.213E3,2.46E2,7.5E1,4.45E2,1.29E2,1.79E2,2.9E1],"tree_param":{"num_deleted":"0","num_feature":"7","num_nodes":"63","size_leaf_vector":"1"}},{"base_weights":[1.582426E-2,-9.012442E0,1.637585E1,-1.3905525E1,-1.2018297E0,9.905599E0,2.2656237E1,-1.6326567E1,-9.525166E0,-3.233807E0,4.255101E0,3.6630604E0,1.2607636E1,1.9755304E1,3.3047802E1,-1.7816868E1,-1.416776E1,-1.3604031E1,-8.465098E0,-6.970659E0,-1.105379E0,2.6674516E0,1.0628576E1,-4.423385E0,5.5101204E0,1.0996302E1,2.3388111E1,1.2677677E1,2.269766E1,2.424383E1,3.708628E1,-1.8568853E0,-1.5774925E0,-1.5824393E0,-1.2395754E0,-1.0748295E0,-1.6240183E0,-9.189677E-1,-3.25039E-1,-1.6135304E-1,-1.2216052E0,-6.335375E-1,3.403889E-2,1.2759905E-1,7.2878724E-1,4.4662333E-1,1.4754473E0,-2.5490323E-2,-6.954828E-1,4.0224767E-1,1.4263335E0,7.410328E-1,1.4234546E0,1.4051646E0,3.0812376E0,1.1246303E0,2.191964E0,2.0160167E0,3.2028987E0,2.218152E0,3.1822429E0,3.2759235E0,4.5799828E0],"categories":[],"categories_nodes":[],"categories_segments":[],"categories_sizes":[],"default_left":[0,0,0,0,0,0,0,0,0,0,0,0,0,0,0,0,0,0,0,0,0,0,0,0,0,0,0,0,0,0,0,0,0,0,0,0,0,0,0,0,0,0,0,0,0,0,0,0,0,0,0,0,0,0,0,0,0,0,0,0,0,0,0],"id":14,"left_children":[1,3,5,7,9,11,13,15,17,19,21,23,25,27,29,31,33,35,37,39,41,43,45,47,49,51,53,55,57,59,61,-1,-1,-1,-1,-1,-1,-1,-1,-1,-1,-1,-1,-1,-1,-1,-1,-1,-1,-1,-1,-1,-1,-1,-1,-1,-1,-1,-1,-1,-1,-1,-1],"loss_changes":[1.7727274E6,2.955612E5,1.7320875E5,5.0271375E4,3.3057074E4,3.5443203E4,6.4611625E4,9.5956875E3,7.2138125E3,1.726756E4,8.157795E3,9.538698E3,2.5243375E4,3.5010438E4,1.5847125E4,2.48175E3,3.4879844E3,2.4452422E3,5.063508E3,2.2123285E4,1.0474639E4,4.16321E3,4.0275586E3,1.2539475E3,6.70087E3,1.4746594E4,1.2737148E4,6.367836E3,2.7673312E4,1.6541719E3,1.06025625E4,0E0,0E0,0E0,0E0,0E0,0E0,0E0,0E0,0E0,0E0,0E0,0E0,0E0,0E0,0E0,0E0,0E0,0E0,0E0,0E0,0E0,0E0,0E0,0E0,0E0,0E0,0E0,0E0,0E0,0E0,0E0,0E0],"parents":[2147483647,0,0,1,1,2,2,3,3,4,4,5,5,6,6,7,7,8,8,9,9,10,10,11,11,12,12,13,13,14,14,15,15,16,16,17,17,18,18,19,19,20,20,21,21,22,22,23,23,24,24,25,25,26,26,27,27,28,28,29,29,30,30],"right_children":[2,4,6,8,10,12,14,16,18,20,22,24,26,28,30,32,34,36,38,40,42,44,46,48,50,52,54,56,58,60,62,-1,-1,-1,-1,-1,-1,-1,-1,-1,-1,-1,-1,-1,-1,-1,-1,-1,-1,-1,-1,-1,-1,-1,-1,-1,-1,-1,-1,-1,-1,-1,-1],"split_conditions":[5.439627E-1,-2.9918802E-1,9.983216E-1,-7.8098845E-1,4.7421783E-1,3.6939707E-1,1.6280136E0,-1.1423388E0,-8.88452E-1,-6.323045E-1,1.0058762E0,-1.547067E-1,1.4327645E0,-7.5030845E-1,-6.323045E-1,-8.88452E-1,-4.228475E-2,1.0071925E0,1.4917666E0,1.0071925E0,-4.6916896E-1,9.983216E-1,-1.6028869E-1,-3.2693237E-1,1.3147607E0,1.0257632E0,1.0071925E0,1.8368876E0,1.0058762E0,1.0058762E0,6.0603356E-1,-1.8568853E0,-1.5774925E0,-1.5824393E0,-1.2395754E0,-1.0748295E0,-1.6240183E0,-9.189677E-1,-3.25039E-1,-1.6135304E-1,-1.2216052E0,-6.335375E-1,3.403889E-2,1.2759905E-1,7.2878724E-1,4.4662333E-1,1.4754473E0,-2.5490323E-2,-6.954828E-1,4.0224767E-1,1.4263335E0,7.410328E-1,1.4234546E0,1.4051646E0,3.0812376E0,1.1246303E0,2.191964E0,2.0160167E0,3.2028987E0,2.218152E0,3.1822429E0,3.2759235E0,4.5799828E0],"split_indices":[4,4,5,4,5,5,4,4,5,1,3,5,1,1,1,5,1,0,1,0,5,5,1,3,1,4,0,5,3,3,3,0,0,0,0,0,0,0,0,0,0,0,0,0,0,0,0,0,0,0,0,0,0,0,0,0,0,0,0,0,0,0,0],"split_type":[0,0,0,0,0,0,0,0,0,0,0,0,0,0,0,0,0,0,0,0,0,0,0,0,0,0,0,0,0,0,0,0,0,0,0,0,0,0,0,0,0,0,0,0,0,0,0,0,0,0,0,0,0,0,0,0,0,0,0,0,0,0,0],"sum_hessian":[1.2E4,7.733E3,4.267E3,4.754E3,2.979E3,2.103E3,2.164E3,3.06E3,1.694E3,2.171E3,8.08E2,6.36E2,1.467E3,1.694E3,4.7E2,1.806E3,1.254E3,3.47E2,1.347E3,7.87E2,1.384E3,6.48E2,1.6E2,1.18E2,5.18E2,1.278E3,1.89E2,4.99E2,1.195E3,1.5E2,3.2E2,1.314E3,4.92E2,6.44E2,6.1E2,1.69E2,1.78E2,1.182E3,1.65E2,3.9E2,3.97E2,2.99E2,1.085E3,4.99E2,1.49E2,6.5E1,9.5E1,4.5E1,7.3E1,4.44E2,7.4E1,6.08E2,6.7E2,8.5E1,1.04E2,4.34E2,6.5E1,9.42E2,2.53E2,1.21E2,2.9E1,2.17E2,1.03E2],"tree_param":{"num_deleted":"0","num_feature":"7","num_nodes":"63","size_leaf_vector":"1"}},{"base_weights":[1.5919294E-2,-1.0120084E1,1.1882502E1,-1.4128102E1,-5.423197E0,6.2079363E0,2.016188E1,-1.5623516E1,-1.1440121E1,-8.685161E0,-3.4054096E0,2.4966178E0,1.0055929E1,1.7862074E1,2.9760693E1,-1.7278664E1,-1.45704775E1,-1.2292917E1,-7.848496E0,-1.2130468E1,-7.191528E0,-5.860856E0,-1.0531101E0,-3.8040738E0,4.1495566E0,8.372213E0,1.7927315E1,1.6266169E1,2.9989496E1,2.5364231E1,3.7640724E1,-1.8099257E0,-1.5637325E0,-1.580884E0,-1.3226565E0,-1.3449286E0,-9.601137E-1,-8.811116E-1,-3.956562E-1,-6.232976E-1,-1.7822672E0,-1.0690519E0,-5.8388966E-1,-6.566789E-1,-1.11493886E-1,-2.3898374E-1,5.172579E-1,-9.574858E-2,-6.778987E-1,2.5331816E-1,1.0666884E0,5.375721E-1,1.1320359E0,1.2516043E0,2.4864614E0,5.8508646E-1,1.7827631E0,2.1092508E0,3.8356762E0,2.3526058E0,4.0526066E0,2.9693646E0,4.5301666E0],"categories":[],"categories_nodes":[],"categories_segments":[],"categories_sizes":[],"default_left":[0,0,0,0,0,0,0,0,0,0,0,0,0,0,0,0,0,0,0,0,0,0,0,0,0,0,0,0,0,0,0,0,0,0,0,0,0,0,0,0,0,0,0,0,0,0,0,0,0,0,0,0,0,0,0,0,0,0,0,0,0,0,0],"id":15,"left_children":[1,3,5,7,9,11,13,15,17,19,21,23,25,27,29,31,33,35,37,39,41,43,45,47,49,51,53,55,57,59,61,-1,-1,-1,-1,-1,-1,-1,-1,-1,-1,-1,-1,-1,-1,-1,-1,-1,-1,-1,-1,-1,-1,-1,-1,-1,-1,-1,-1,-1,-1,-1,-1],"loss_changes":[1.4435972E6,1.21779E5,2.5963762E5,1.3857875E4,1.9597797E4,4.684557E4,4.9093938E4,3.654125E3,3.7382969E3,5.774086E3,1.0644672E4,1.7429094E4,2.1200766E4,3.46595E4,1.4046219E4,8.833906E2,2.0809062E3,3.0146875E3,8.755254E2,1.1403324E4,3.7096562E3,3.0146484E3,7.860053E3,2.940496E3,1.3931121E4,1.1679664E4,1.0312492E4,2.60305E4,1.4824078E4,6.8780625E3,7.9697812E3,0E0,0E0,0E0,0E0,0E0,0E0,0E0,0E0,0E0,0E0,0E0,0E0,0E0,0E0,0E0,0E0,0E0,0E0,0E0,0E0,0E0,0E0,0E0,0E0,0E0,0E0,0E0,0E0,0E0,0E0,0E0,0E0],"parents":[2147483647,0,0,1,1,2,2,3,3,4,4,5,5,6,6,7,7,8,8,9,9,10,10,11,11,12,12,13,13,14,14,15,15,16,16,17,17,18,18,19,19,20,20,21,21,22,22,23,23,24,24,25,25,26,26,27,27,28,28,29,29,30,30],"right_children":[2,4,6,8,10,12,14,16,18,20,22,24,26,28,30,32,34,36,38,40,42,44,46,48,50,52,54,56,58,60,62,-1,-1,-1,-1,-1,-1,-1,-1,-1,-1,-1,-1,-1,-1,-1,-1,-1,-1,-1,-1,-1,-1,-1,-1,-1,-1,-1,-1,-1,-1,-1,-1],"split_conditions":[1.8261239E-1,-6.605383E-1,1.1462132E0,-1.0218886E0,-3.643482E-1,5.7903856E-1,1.7320669E0,-1.307735E0,-2.5952744E-1,-7.5030845E-1,-1.7873791E-1,-1.547067E-1,1.0725166E0,1.4917666E0,3.7072906E-1,3.7072906E-1,-1.01286724E-1,6.6573894E-1,7.837429E-1,1.0071925E0,-8.88452E-1,1.4327645E0,1.0197507E0,1.0071925E0,1.0787528E0,7.8486294E-1,3.117271E-1,5.7903856E-1,1.0071925E0,2.3609915E0,1.0071925E0,-1.8099257E0,-1.5637325E0,-1.580884E0,-1.3226565E0,-1.3449286E0,-9.601137E-1,-8.811116E-1,-3.956562E-1,-6.232976E-1,-1.7822672E0,-1.0690519E0,-5.8388966E-1,-6.566789E-1,-1.11493886E-1,-2.3898374E-1,5.172579E-1,-9.574858E-2,-6.778987E-1,2.5331816E-1,1.0666884E0,5.375721E-1,1.1320359E0,1.2516043E0,2.4864614E0,5.8508646E-1,1.7827631E0,2.1092508E0,3.8356762E0,2.3526058E0,4.0526066E0,2.9693646E0,4.5301666E0],"split_indices":[4,4,4,4,5,5,5,5,5,1,4,5,3,1,1,1,1,1,1,0,5,1,1,0,1,4,1,5,0,5,0,0,0,0,0,0,0,0,0,0,0,0,0,0,0,0,0,0,0,0,0,0,0,0,0,0,0,0,0,0,0,0,0],"split_type":[0,0,0,0,0,0,0,0,0,0,0,0,0,0,0,0,0,0,0,0,0,0,0,0,0,0,0,0,0,0,0,0,0,0,0,0,0,0,0,0,0,0,0,0,0,0,0,0,0,0,0,0,0,0,0,0,0,0,0,0,0,0,0],"sum_hessian":[1.2E4,6.472E3,5.528E3,3.491E3,2.981E3,3.281E3,2.247E3,2.24E3,1.251E3,1.138E3,1.843E3,1.671E3,1.61E3,1.815E3,4.32E2,8.65E2,1.375E3,1.009E3,2.42E2,3.42E2,7.96E2,9.01E2,9.42E2,3.47E2,1.324E3,1.328E3,2.82E2,1.606E3,2.09E2,2.8E2,1.52E2,5.7E2,2.95E2,7.1E2,6.65E2,7.03E2,3.06E2,1.93E2,4.9E1,1.69E2,1.73E2,2.2E2,5.76E2,7.84E2,1.17E2,7.76E2,1.66E2,1.78E2,1.69E2,1.062E3,2.62E2,6.6E2,6.68E2,1.6E2,1.22E2,2.1E2,1.396E3,1.03E2,1.06E2,2.52E2,2.8E1,7.7E1,7.5E1],"tree_param":{"num_deleted":"0","num_feature":"7","num_nodes":"63","size_leaf_vector":"1"}},{"base_weights":[1.5474652E-2,-6.8201976E0,1.4362793E1,-1.1286588E1,-5.2552855E-1,1.1323536E1,2.2863985E1,-1.366941E1,-8.368482E0,-3.0411363E0,2.8405929E0,8.385824E0,1.60587E1,1.6400747E1,2.6714153E1,-1.45185175E1,-1.1464167E1,-9.364037E0,-4.6403036E0,-4.579627E0,1.2008473E0,-1.1817522E-1,5.3038797E0,4.25752E0,1.1351157E1,1.3963127E1,2.4793615E1,1.55711155E1,3.3346283E1,2.426247E1,3.6368446E1,-1.7020832E0,-1.3995986E0,-1.1961172E0,-7.4877423E-1,-1.1392875E0,-7.8505325E-1,-5.766936E-1,-1.1994028E-1,-1.3953055E-1,-7.7173966E-1,-2.2361569E-1,5.241874E-1,2.1408737E-1,-2.4750768E-1,1.2236551E-1,9.02461E-1,8.387254E-1,4.999847E-2,9.085946E-1,1.802425E0,1.3036293E0,2.4708154E0,2.0937643E0,3.6713974E0,1.41055E0,2.1923044E0,2.2966444E0,4.21528E0,1.9220295E0,2.79187E0,3.3130734E0,4.88832E0],"categories":[],"categories_nodes":[],"categories_segments":[],"categories_sizes":[],"default_left":[0,0,0,0,0,0,0,0,0,0,0,0,0,0,0,0,0,0,0,0,0,0,0,0,0,0,0,0,0,0,0,0,0,0,0,0,0,0,0,0,0,0,0,0,0,0,0,0,0,0,0,0,0,0,0,0,0,0,0,0,0,0,0],"id":16,"left_children":[1,3,5,7,9,11,13,15,17,19,21,23,25,27,29,31,33,35,37,39,41,43,45,47,49,51,53,55,57,59,61,-1,-1,-1,-1,-1,-1,-1,-1,-1,-1,-1,-1,-1,-1,-1,-1,-1,-1,-1,-1,-1,-1,-1,-1,-1,-1,-1,-1,-1,-1,-1,-1],"loss_changes":[1.1770788E6,2.2853644E5,9.9809E4,3.2948688E4,2.8587602E4,3.9579938E4,2.4919188E4,4.7319688E3,7.8994062E3,1.2614223E4,1.0524926E4,2.1546195E4,1.96425E4,4.8651953E3,1.4195E4,2.2265E3,1.3570859E3,5.0938125E3,1.7491953E3,1.4157412E4,7.1645693E3,3.503401E3,1.195191E4,1.1463328E4,1.5345219E4,8.471578E3,8.883852E3,3.1073438E3,5.8587305E2,8.8838125E3,3.5264062E3,0E0,0E0,0E0,0E0,0E0,0E0,0E0,0E0,0E0,0E0,0E0,0E0,0E0,0E0,0E0,0E0,0E0,0E0,0E0,0E0,0E0,0E0,0E0,0E0,0E0,0E0,0E0,0E0,0E0,0E0,0E0,0E0],"parents":[2147483647,0,0,1,1,2,2,3,3,4,4,5,5,6,6,7,7,8,8,9,9,10,10,11,11,12,12,13,13,14,14,15,15,16,16,17,17,18,18,19,19,20,20,21,21,22,22,23,23,24,24,25,25,26,26,27,27,28,28,29,29,30,30],"right_children":[2,4,6,8,10,12,14,16,18,20,22,24,26,28,30,32,34,36,38,40,42,44,46,48,50,52,54,56,58,60,62,-1,-1,-1,-1,-1,-1,-1,-1,-1,-1,-1,-1,-1,-1,-1,-1,-1,-1,-1,-1,-1,-1,-1,-1,-1,-1,-1,-1,-1,-1,-1,-1],"split_conditions":[6.644128E-1,-2.9918802E-1,1.5075635E0,-9.0143853E-1,2.6457632E-1,1.1031424E0,-5.733025E-1,-7.836312E-1,-4.9885944E-2,7.247409E-1,-2.7829266E-1,-3.962966E-1,1.0058762E0,2.2561707E0,1.0058762E0,-1.727018E0,1.5507685E0,-3.962966E-1,3.6939707E-1,1.0071925E0,1.0071925E0,1.0071925E0,1.0071925E0,1.0071925E0,8.059549E-1,1.6097705E0,1.3147607E0,1.7484637E0,2.529386E-1,1.3127838E0,1.5507685E0,-1.7020832E0,-1.3995986E0,-1.1961172E0,-7.4877423E-1,-1.1392875E0,-7.8505325E-1,-5.766936E-1,-1.1994028E-1,-1.3953055E-1,-7.7173966E-1,-2.2361569E-1,5.241874E-1,2.1408737E-1,-2.4750768E-1,1.2236551E-1,9.02461E-1,8.387254E-1,4.999847E-2,9.085946E-1,1.802425E0,1.3036293E0,2.4708154E0,2.0937643E0,3.6713974E0,1.41055E0,2.1923044E0,2.2966444E0,4.21528E0,1.9220295E0,2.79187E0,3.3130734E0,4.88832E0],"split_indices":[4,4,4,4,5,5,1,5,5,1,1,1,3,5,3,5,1,1,5,0,0,0,0,0,3,1,1,4,2,5,1,0,0,0,0,0,0,0,0,0,0,0,0,0,0,0,0,0,0,0,0,0,0,0,0,0,0,0,0,0,0,0,0],"split_type":[0,0,0,0,0,0,0,0,0,0,0,0,0,0,0,0,0,0,0,0,0,0,0,0,0,0,0,0,0,0,0,0,0,0,0,0,0,0,0,0,0,0,0,0,0,0,0,0,0,0,0,0,0,0,0,0,0,0,0,0,0,0,0],"sum_hessian":[1.2E4,8.128E3,3.872E3,4.754E3,3.374E3,2.854E3,1.018E3,2.615E3,2.139E3,1.931E3,1.443E3,1.763E3,1.091E3,3.82E2,6.36E2,1.884E3,7.31E2,1.687E3,4.52E2,1.417E3,5.14E2,6.56E2,7.87E2,7.38E2,1.025E3,8.82E2,2.09E2,3.66E2,1.6E1,5.1E2,1.26E2,3.2E2,1.564E3,6.48E2,8.3E1,7.18E2,9.69E2,3.4E2,1.12E2,7.04E2,7.13E2,2.78E2,2.36E2,3.35E2,3.21E2,3.76E2,4.11E2,3.51E2,3.87E2,7.67E2,2.58E2,8.14E2,6.8E1,1.6E2,4.9E1,3E2,6.6E1,9E0,7E0,2.17E2,2.93E2,1.03E2,2.3E1],"tree_param":{"num_deleted":"0","num_feature":"7","num_nodes":"63","size_leaf_vector":"1"}},{"base_weights":[1.6333183E-2,-8.243666E0,9.686609E0,-1.1950735E1,-4.9165087E0,3.4120135E0,1.4711306E1,-1.4029965E1,-1.0980944E1,-7.57993E0,-2.9734309E0,2.173498E0,9.881282E0,1.2596792E1,2.3183325E1,-1.6046762E0,-1.3531022E1,-1.3790528E1,-1.0327012E1,-1.2062735E1,-6.717144E0,-4.383236E0,-9.944461E-2,5.513373E-1,6.240357E0,3.254663E0,1.5586077E1,1.0509366E1,1.9341211E1,2.0205921E1,3.1539038E1,-1.4326513E0,-1.2455572E0,-1.1935618E0,-1.5476159E0,-1.1681008E0,-9.140034E-1,-9.2361784E-1,-1.4556E0,-7.434949E-1,-2.1938622E-1,-5.231859E-1,-5.4448463E-2,-3.6276403E-1,1.6975519E-1,-4.2557368E-1,1.851747E-1,5.118263E-1,1.2404878E0,5.3133446E-1,1.3938475E-1,1.2786359E0,2.0231922E0,3.175536E-1,1.1780046E0,1.2690538E0,2.5723422E0,1.8593184E0,3.133586E0,2.9738166E0,5.8249354E0],"categories":[],"categories_nodes":[],"categories_segments":[],"categories_sizes":[],"default_left":[0,0,0,0,0,0,0,0,0,0,0,0,0,0,0,0,0,0,0,0,0,0,0,0,0,0,0,0,0,0,0,0,0,0,0,0,0,0,0,0,0,0,0,0,0,0,0,0,0,0,0,0,0,0,0,0,0,0,0,0,0],"id":17,"left_children":[1,3,5,7,9,11,13,15,17,19,21,23,25,27,29,-1,31,33,35,37,39,41,43,45,47,49,51,53,55,57,59,-1,-1,-1,-1,-1,-1,-1,-1,-1,-1,-1,-1,-1,-1,-1,-1,-1,-1,-1,-1,-1,-1,-1,-1,-1,-1,-1,-1,-1,-1],"loss_changes":[9.586773E5,7.977925E4,1.7426775E5,6.0181562E3,1.764054E4,1.968875E4,5.4704562E4,7.589531E2,3.7011875E3,5.4845938E3,8.001791E3,1.3626166E4,1.4881656E4,3.441572E4,1.4588281E4,0E0,4.9228125E2,1.0409531E3,2.6270156E3,1.4935E3,3.9091133E3,4.313541E3,4.133599E3,9.247104E3,4.0107227E3,6.9746606E2,2.4988047E3,1.7482219E4,2.4292234E4,7.5665156E3,5.915953E3,0E0,0E0,0E0,0E0,0E0,0E0,0E0,0E0,0E0,0E0,0E0,0E0,0E0,0E0,0E0,0E0,0E0,0E0,0E0,0E0,0E0,0E0,0E0,0E0,0E0,0E0,0E0,0E0,0E0,0E0],"parents":[2147483647,0,0,1,1,2,2,3,3,4,4,5,5,6,6,7,7,8,8,9,9,10,10,11,11,12,12,13,13,14,14,16,16,17,17,18,18,19,19,20,20,21,21,22,22,23,23,24,24,25,25,26,26,27,27,28,28,29,29,30,30],"right_children":[2,4,6,8,10,12,14,16,18,20,22,24,26,28,30,-1,32,34,36,38,40,42,44,46,48,50,52,54,56,58,60,-1,-1,-1,-1,-1,-1,-1,-1,-1,-1,-1,-1,-1,-1,-1,-1,-1,-1,-1,-1,-1,-1,-1,-1,-1,-1,-1,-1,-1,-1],"split_conditions":[1.8261239E-1,-7.8098845E-1,9.05313E-1,-1.3832389E0,-3.643482E-1,1.2557586E0,1.6272461E0,-1.6241392E0,-1.4125558E0,-1.0980935E0,-5.8287814E-2,7.886801E-1,1.0071925E0,9.017468E-1,7.3931444E-1,-1.6046762E0,7.57192E-2,1.0071925E0,-2.1929067E-1,1.0071925E0,1.4327645E0,1.0787528E0,-7.5030845E-1,-9.863163E-1,1.4176046E0,-7.2677493E-1,6.8385935E-1,4.7421783E-1,1.0071925E0,2.2561707E0,2.4658122E0,-1.4326513E0,-1.2455572E0,-1.1935618E0,-1.5476159E0,-1.1681008E0,-9.140034E-1,-9.2361784E-1,-1.4556E0,-7.434949E-1,-2.1938622E-1,-5.231859E-1,-5.4448463E-2,-3.6276403E-1,1.6975519E-1,-4.2557368E-1,1.851747E-1,5.118263E-1,1.2404878E0,5.3133446E-1,1.3938475E-1,1.2786359E0,2.0231922E0,3.175536E-1,1.1780046E0,1.2690538E0,2.5723422E0,1.8593184E0,3.133586E0,2.9738166E0,5.8249354E0],"split_indices":[4,4,4,4,5,1,5,4,5,5,4,5,0,1,3,0,1,0,1,0,1,1,1,1,5,3,5,5,0,5,5,0,0,0,0,0,0,0,0,0,0,0,0,0,0,0,0,0,0,0,0,0,0,0,0,0,0,0,0,0,0],"split_type":[0,0,0,0,0,0,0,0,0,0,0,0,0,0,0,0,0,0,0,0,0,0,0,0,0,0,0,0,0,0,0,0,0,0,0,0,0,0,0,0,0,0,0,0,0,0,0,0,0,0,0,0,0,0,0,0,0,0,0,0,0],"sum_hessian":[1.2E4,6.472E3,5.528E3,3.06E3,3.412E3,2.459E3,3.069E3,9.69E2,2.091E3,1.438E3,1.974E3,2.065E3,3.94E2,2.458E3,6.11E2,1.86E2,7.83E2,3.91E2,1.7E3,2.3E2,1.208E3,1.324E3,6.5E2,1.477E3,5.88E2,1.83E2,2.11E2,1.879E3,5.79E2,4.53E2,1.58E2,4.43E2,3.4E2,1.9E2,2.01E2,7.9E2,9.1E2,1.1E2,1.2E2,1.042E3,1.66E2,1.084E3,2.4E2,2.19E2,4.31E2,3.14E2,1.163E3,4.99E2,8.9E1,8.6E1,9.7E1,1.34E2,7.7E1,2.78E2,1.601E3,2.85E2,2.94E2,3.98E2,5.5E1,1.5E2,8E0],"tree_param":{"num_deleted":"0","num_feature":"7","num_nodes":"61","size_leaf_vector":"1"}},{"base_weights":[1.564919E-2,-6.4956527E0,9.984447E0,-1.0109052E1,-2.3790417E0,6.0185666E0,1.6652155E1,-1.1461814E1,-8.242378E0,-4.8179107E0,3.151611E-1,3.0451844E0,9.659072E0,9.378366E0,1.8848286E1,-1.32708E1,-1.0838968E1,-8.789862E0,-3.9506547E0,-7.3483663E0,-3.6583169E0,-3.6462164E0,2.0861397E0,1.4368578E0,6.9717536E0,8.52664E0,1.9761974E1,7.317877E0,1.3742334E1,1.6660084E1,2.6341164E1,-1.4450667E0,-1.2660079E0,-1.1551586E0,-8.8737786E-1,-7.076926E-1,-1.058788E0,-7.523867E-1,-1.6791598E-1,-2.9703078E-1,-1.1794728E0,-4.3763444E-1,1.2137949E-1,-9.683344E-1,-2.4009101E-1,1.1142737E-1,9.0229475E-1,-2.7193152E-3,3.8371664E-1,3.918116E-1,1.3035182E0,3.282193E-1,1.0097563E0,9.749285E-1,2.7047353E0,1.1752132E0,5.17811E-1,1.2468953E0,2.1043622E0,1.4151626E0,2.190164E0,2.4013214E0,3.6486146E0],"categories":[],"categories_nodes":[],"categories_segments":[],"categories_sizes":[],"default_left":[0,0,0,0,0,0,0,0,0,0,0,0,0,0,0,0,0,0,0,0,0,0,0,0,0,0,0,0,0,0,0,0,0,0,0,0,0,0,0,0,0,0,0,0,0,0,0,0,0,0,0,0,0,0,0,0,0,0,0,0,0,0,0],"id":18,"left_children":[1,3,5,7,9,11,13,15,17,19,21,23,25,27,29,31,33,35,37,39,41,43,45,47,49,51,53,55,57,59,61,-1,-1,-1,-1,-1,-1,-1,-1,-1,-1,-1,-1,-1,-1,-1,-1,-1,-1,-1,-1,-1,-1,-1,-1,-1,-1,-1,-1,-1,-1,-1,-1],"loss_changes":[7.79048E5,1.0796819E5,1.2529403E5,9.66775E3,2.2309408E4,3.2173805E4,2.8065562E4,2.3789062E3,3.7905E3,5.202039E3,1.1330647E4,1.0340604E4,1.512793E4,3.6041016E3,2.1810438E4,2.270625E2,2.237625E3,4.3693516E3,1.4970413E3,1.0846703E4,4.287245E3,3.728269E3,7.513625E3,4.0906028E3,8.762309E3,9.886156E3,9.511102E3,2.6148389E3,9.5555664E2,1.3535156E4,6.3270312E3,0E0,0E0,0E0,0E0,0E0,0E0,0E0,0E0,0E0,0E0,0E0,0E0,0E0,0E0,0E0,0E0,0E0,0E0,0E0,0E0,0E0,0E0,0E0,0E0,0E0,0E0,0E0,0E0,0E0,0E0,0E0,0E0],"parents":[2147483647,0,0,1,1,2,2,3,3,4,4,5,5,6,6,7,7,8,8,9,9,10,10,11,11,12,12,13,13,14,14,15,15,16,16,17,17,18,18,19,19,20,20,21,21,22,22,23,23,24,24,25,25,26,26,27,27,28,28,29,29,30,30],"right_children":[2,4,6,8,10,12,14,16,18,20,22,24,26,28,30,32,34,36,38,40,42,44,46,48,50,52,54,56,58,60,62,-1,-1,-1,-1,-1,-1,-1,-1,-1,-1,-1,-1,-1,-1,-1,-1,-1,-1,-1,-1,-1,-1,-1,-1,-1,-1,-1,-1,-1,-1,-1,-1],"split_conditions":[3.6939707E-1,-5.4008824E-1,1.2666633E0,-1.0218886E0,6.216229E-2,7.8486294E-1,-8.6831236E-1,-1.503689E0,1.5507685E0,-7.5030845E-1,-1.547067E-1,6.72674E-1,1.5507685E0,1.6280136E0,8.725953E-1,-1.6241392E0,7.247409E-1,1.0071925E0,1.0071925E0,1.0071925E0,1.3390783E0,-6.788105E-1,1.4917666E0,7.886801E-1,6.0673696E-1,-9.2731434E-1,1.0071925E0,-7.2677493E-1,1.2724378E0,1.6280136E0,1.4917666E0,-1.4450667E0,-1.2660079E0,-1.1551586E0,-8.8737786E-1,-7.076926E-1,-1.058788E0,-7.523867E-1,-1.6791598E-1,-2.9703078E-1,-1.1794728E0,-4.3763444E-1,1.2137949E-1,-9.683344E-1,-2.4009101E-1,1.1142737E-1,9.0229475E-1,-2.7193152E-3,3.8371664E-1,3.918116E-1,1.3035182E0,3.282193E-1,1.0097563E0,9.749285E-1,2.7047353E0,1.1752132E0,5.17811E-1,1.2468953E0,2.1043622E0,1.4151626E0,2.190164E0,2.4013214E0,3.6486146E0],"split_indices":[5,4,4,4,4,4,1,4,1,1,5,3,1,4,3,4,1,0,0,0,3,5,1,5,1,1,0,3,3,4,1,0,0,0,0,0,0,0,0,0,0,0,0,0,0,0,0,0,0,0,0,0,0,0,0,0,0,0,0,0,0,0,0],"split_type":[0,0,0,0,0,0,0,0,0,0,0,0,0,0,0,0,0,0,0,0,0,0,0,0,0,0,0,0,0,0,0,0,0,0,0,0,0,0,0,0,0,0,0,0,0,0,0,0,0,0,0,0,0,0,0,0,0,0,0,0,0,0,0],"sum_hessian":[1.2E4,7.259E3,4.741E3,3.865E3,3.394E3,2.974E3,1.767E3,2.238E3,1.627E3,1.781E3,1.613E3,1.638E3,1.336E3,4.11E2,1.356E3,5.68E2,1.67E3,1.442E3,1.85E2,5.58E2,1.223E3,4.98E2,1.115E3,1.163E3,4.75E2,1.203E3,1.33E2,2.81E2,1.3E2,1.052E3,3.04E2,1.86E2,3.82E2,1.222E3,4.48E2,7.41E2,7.01E2,7.1E1,1.14E2,2.82E2,2.76E2,1.066E3,1.57E2,8.4E1,4.14E2,9.79E2,1.36E2,7.23E2,4.4E2,3.17E2,1.58E2,2.78E2,9.25E2,5.7E1,7.6E1,9E1,1.91E2,1.13E2,1.7E1,7.14E2,3.38E2,2.5E2,5.4E1],"tree_param":{"num_deleted":"0","num_feature":"7","num_nodes":"63","size_leaf_vector":"1"}},{"base_weights":[1.5114605E-2,-5.0064406E0,1.0554801E1,-7.942367E0,1.5603511E-1,7.3196654E0,1.5403824E1,-9.629712E0,-5.2065434E0,-6.742537E-1,6.203178E0,2.680032E0,9.149419E0,1.4084533E1,2.638452E1,-1.0747533E1,-7.9906297E0,-5.9354663E0,-2.1829424E0,-5.514808E0,3.0134395E-1,4.7130883E-1,1.1322767E1,7.0064816E0,-1.3751513E0,7.8801847E0,1.6966105E1,1.2410764E1,2.247958E1,1.826423E1,3.2787125E1,-9.851797E-1,-1.172551E0,-1.2277268E0,-7.396913E-1,-8.1470376E-1,-5.121874E-1,-2.823806E-1,2.9947326E-1,-2.2377348E-1,-8.857684E-1,-3.3534804E-1,1.2928523E-1,-2.7393803E-1,1.6943258E-1,5.9191215E-1,1.2981824E0,8.2310265E-1,3.0510148E-1,-5.102557E-1,3.2382786E-1,-4.3206524E-2,8.7642545E-1,1.5349215E0,2.6592E0,1.0667804E0,1.8180676E0,2.081371E0,3.720782E0,1.1868743E0,2.4862993E0,2.974158E0,4.4294686E0],"categories":[],"categories_nodes":[],"categories_segments":[],"categories_sizes":[],"default_left":[0,0,0,0,0,0,0,0,0,0,0,0,0,0,0,0,0,0,0,0,0,0,0,0,0,0,0,0,0,0,0,0,0,0,0,0,0,0,0,0,0,0,0,0,0,0,0,0,0,0,0,0,0,0,0,0,0,0,0,0,0,0,0],"id":19,"left_children":[1,3,5,7,9,11,13,15,17,19,21,23,25,27,29,31,33,35,37,39,41,43,45,47,49,51,53,55,57,59,61,-1,-1,-1,-1,-1,-1,-1,-1,-1,-1,-1,-1,-1,-1,-1,-1,-1,-1,-1,-1,-1,-1,-1,-1,-1,-1,-1,-1,-1,-1,-1,-1],"loss_changes":[6.352132E5,1.2320964E5,6.064397E4,2.3871406E4,1.4805724E4,1.9713297E4,2.2068344E4,5.7845E3,4.348707E3,1.2246932E4,1.0441419E4,1.157149E4,1.6404938E4,1.9182156E4,7.9796875E3,1.5506562E3,3.2253828E3,2.8263828E3,1.2892751E3,4.745538E3,7.8280957E3,6.682583E2,1.6085684E3,1.5200117E3,5.880402E3,1.0556383E4,3.2026875E3,1.14416875E4,4.8441562E3,2.8700781E3,1.8718594E3,0E0,0E0,0E0,0E0,0E0,0E0,0E0,0E0,0E0,0E0,0E0,0E0,0E0,0E0,0E0,0E0,0E0,0E0,0E0,0E0,0E0,0E0,0E0,0E0,0E0,0E0,0E0,0E0,0E0,0E0,0E0,0E0],"parents":[2147483647,0,0,1,1,2,2,3,3,4,4,5,5,6,6,7,7,8,8,9,9,10,10,11,11,12,12,13,13,14,14,15,15,16,16,17,17,18,18,19,19,20,20,21,21,22,22,23,23,24,24,25,25,26,26,27,27,28,28,29,29,30,30],"right_children":[2,4,6,8,10,12,14,16,18,20,22,24,26,28,30,32,34,36,38,40,42,44,46,48,50,52,54,56,58,60,62,-1,-1,-1,-1,-1,-1,-1,-1,-1,-1,-1,-1,-1,-1,-1,-1,-1,-1,-1,-1,-1,-1,-1,-1,-1,-1,-1,-1,-1,-1,-1,-1],"split_conditions":[6.644128E-1,-1.7873791E-1,1.2079631E0,-5.739897E-1,1.4327645E0,-7.5030845E-1,1.5507685E0,-1.0218886E0,1.5975557E-1,-3.643482E-1,1.0071925E0,1.0071925E0,1.2057974E0,1.9417084E0,1.0071925E0,1.0071925E0,-1.4125558E0,-8.093104E-1,1.1391569E0,1.0071925E0,-9.863163E-1,6.216229E-2,-1.547067E-1,-5.268537E-1,8.059549E-1,1.5975557E-1,1.6687725E0,1.6280136E0,2.4658122E0,1.5075635E0,1.8368876E0,-9.851797E-1,-1.172551E0,-1.2277268E0,-7.396913E-1,-8.1470376E-1,-5.121874E-1,-2.823806E-1,2.9947326E-1,-2.2377348E-1,-8.857684E-1,-3.3534804E-1,1.2928523E-1,-2.7393803E-1,1.6943258E-1,5.9191215E-1,1.2981824E0,8.2310265E-1,3.0510148E-1,-5.102557E-1,3.2382786E-1,-4.3206524E-2,8.7642545E-1,1.5349215E0,2.6592E0,1.0667804E0,1.8180676E0,2.081371E0,3.720782E0,1.1868743E0,2.4862993E0,2.974158E0,4.4294686E0],"split_indices":[4,4,5,5,1,1,1,4,5,5,0,0,3,5,0,0,5,1,3,0,1,4,5,3,3,5,1,4,5,4,5,0,0,0,0,0,0,0,0,0,0,0,0,0,0,0,0,0,0,0,0,0,0,0,0,0,0,0,0,0,0,0,0],"split_type":[0,0,0,0,0,0,0,0,0,0,0,0,0,0,0,0,0,0,0,0,0,0,0,0,0,0,0,0,0,0,0,0,0,0,0,0,0,0,0,0,0,0,0,0,0,0,0,0,0,0,0,0,0,0,0,0,0,0,0,0,0,0,0],"sum_hessian":[1.2E4,8.128E3,3.872E3,5.181E3,2.947E3,2.324E3,1.548E3,3.203E3,1.978E3,2.592E3,3.55E2,6.58E2,1.666E3,1.384E3,1.64E2,1.901E3,1.302E3,1.593E3,3.85E2,4.34E2,2.158E3,1.68E2,1.87E2,3.18E2,3.4E2,1.435E3,2.31E2,1.156E3,2.28E2,7.4E1,9E1,9.98E2,9.03E2,1.56E2,1.146E3,4.26E2,1.167E3,3.43E2,4.2E1,2.2E2,2.14E2,4.6E2,1.698E3,4.6E1,1.22E2,4.5E1,1.42E2,2.42E2,7.6E1,1.88E2,1.52E2,1.38E2,1.297E3,2E2,3.1E1,8.9E2,2.66E2,2.07E2,2.1E1,3.9E1,3.5E1,7.4E1,1.6E1],"tree_param":{"num_deleted":"0","num_feature":"7","num_nodes":"63","size_leaf_vector":"1"}},{"base_weights":[1.5333166E-2,-4.9129715E0,8.813995E0,-7.321593E0,-3.0006084E-1,5.3855176E0,1.3941672E1,-8.804254E0,-5.0643883E0,-1.0617259E0,5.5780673E0,4.396625E0,1.205699E1,1.1364957E1,1.8858278E1,-1.0653925E1,-8.140445E0,-7.7099686E0,-4.197249E0,-4.5217032E0,1.3802549E-1,2.5932232E-1,1.0654938E1,3.3563916E-2,5.806525E0,8.880065E0,1.7478722E1,1.0271955E1,1.9592304E1,1.4251715E1,2.332474E1,-9.607312E-1,-1.1656141E0,-9.4938105E-1,-7.3123527E-1,-3.7220955E-1,-1.1682773E0,-4.6566468E-1,-4.6667732E-2,-4.835383E-2,-6.14902E-1,-3.6879852E-1,1.00796714E-1,2.5763053E-1,-1.5642513E-1,8.454396E-1,1.4730427E0,3.1923115E-1,-3.1482786E-1,4.0248957E-1,9.7279245E-1,7.3686403E-1,1.4648952E0,1.2885736E0,2.3620214E0,6.5496975E-1,1.2084707E0,1.8557595E0,3.8228245E0,1.2488798E0,2.2406616E0,2.180649E0,3.6211503E0],"categories":[],"categories_nodes":[],"categories_segments":[],"categories_sizes":[],"default_left":[0,0,0,0,0,0,0,0,0,0,0,0,0,0,0,0,0,0,0,0,0,0,0,0,0,0,0,0,0,0,0,0,0,0,0,0,0,0,0,0,0,0,0,0,0,0,0,0,0,0,0,0,0,0,0,0,0,0,0,0,0,0,0],"id":20,"left_children":[1,3,5,7,9,11,13,15,17,19,21,23,25,27,29,31,33,35,37,39,41,43,45,47,49,51,53,55,57,59,61,-1,-1,-1,-1,-1,-1,-1,-1,-1,-1,-1,-1,-1,-1,-1,-1,-1,-1,-1,-1,-1,-1,-1,-1,-1,-1,-1,-1,-1,-1,-1,-1],"loss_changes":[5.2043653E5,8.547281E4,7.567769E4,1.6869469E4,1.1825637E4,1.6994586E4,2.1651844E4,3.6569375E3,4.569578E3,9.705925E3,8.1790176E3,1.3852941E4,5.5805234E3,1.0005266E4,1.1848016E4,7.292578E2,2.4499375E3,7.7829727E3,2.5908281E3,3.9529941E3,5.7851587E3,6.3358307E2,1.2655469E3,5.547951E3,1.1851832E4,1.7405371E3,3.1369883E3,6.695367E3,1.8358984E3,3.9468281E3,5.0603906E3,0E0,0E0,0E0,0E0,0E0,0E0,0E0,0E0,0E0,0E0,0E0,0E0,0E0,0E0,0E0,0E0,0E0,0E0,0E0,0E0,0E0,0E0,0E0,0E0,0E0,0E0,0E0,0E0,0E0,0E0,0E0,0E0],"parents":[2147483647,0,0,1,1,2,2,3,3,4,4,5,5,6,6,7,7,8,8,9,9,10,10,11,11,12,12,13,13,14,14,15,15,16,16,17,17,18,18,19,19,20,20,21,21,22,22,23,23,24,24,25,25,26,26,27,27,28,28,29,29,30,30],"right_children":[2,4,6,8,10,12,14,16,18,20,22,24,26,28,30,32,34,36,38,40,42,44,46,48,50,52,54,56,58,60,62,-1,-1,-1,-1,-1,-1,-1,-1,-1,-1,-1,-1,-1,-1,-1,-1,-1,-1,-1,-1,-1,-1,-1,-1,-1,-1,-1,-1,-1,-1,-1,-1],"split_conditions":[4.7421783E-1,-1.7873791E-1,1.2666633E0,-7.8098845E-1,1.4917666E0,1.4176046E0,4.2973104E-1,-1.4125558E0,-8.6831236E-1,-2.5952744E-1,1.0071925E0,-8.6831236E-1,4.7275272E-1,1.7484637E0,1.0071925E0,1.0071925E0,-5.143005E-1,1.0071925E0,1.3390783E0,-6.601345E-1,-1.0453182E0,-7.2677493E-1,1.9637823E0,1.0071925E0,6.72674E-1,1.8368876E0,4.2973104E-1,-9.2731434E-1,2.3609915E0,1.8368876E0,1.9417084E0,-9.607312E-1,-1.1656141E0,-9.4938105E-1,-7.3123527E-1,-3.7220955E-1,-1.1682773E0,-4.6566468E-1,-4.6667732E-2,-4.835383E-2,-6.14902E-1,-3.6879852E-1,1.00796714E-1,2.5763053E-1,-1.5642513E-1,8.454396E-1,1.4730427E0,3.1923115E-1,-3.1482786E-1,4.0248957E-1,9.7279245E-1,7.3686403E-1,1.4648952E0,1.2885736E0,2.3620214E0,6.5496975E-1,1.2084707E0,1.8557595E0,3.8228245E0,1.2488798E0,2.2406616E0,2.180649E0,3.6211503E0],"split_indices":[5,4,4,4,1,5,1,5,1,5,0,1,3,4,0,0,1,0,3,3,1,3,1,0,3,5,1,1,5,5,5,0,0,0,0,0,0,0,0,0,0,0,0,0,0,0,0,0,0,0,0,0,0,0,0,0,0,0,0,0,0,0,0],"split_type":[0,0,0,0,0,0,0,0,0,0,0,0,0,0,0,0,0,0,0,0,0,0,0,0,0,0,0,0,0,0,0,0,0,0,0,0,0,0,0,0,0,0,0,0,0,0,0,0,0,0,0,0,0,0,0,0,0,0,0,0,0,0,0],"sum_hessian":[1.2E4,7.692E3,4.308E3,5.053E3,2.639E3,2.583E3,1.725E3,3.048E3,2.005E3,2.337E3,3.02E2,2.251E3,3.32E2,1.134E3,5.91E2,8.01E2,2.247E3,4.93E2,1.512E3,6.01E2,1.736E3,1.48E2,1.54E2,5.5E2,1.701E3,2.11E2,1.21E2,1.003E3,1.31E2,2.93E2,2.98E2,3.97E2,4.04E2,8.49E2,1.398E3,2.47E2,2.46E2,1.346E3,1.66E2,1.73E2,4.28E2,3.21E2,1.415E3,6.5E1,8.3E1,1.02E2,5.2E1,2.76E2,2.74E2,1.171E3,5.3E2,1.69E2,4.2E1,7.1E1,5E1,3.3E2,6.73E2,1.26E2,5E0,2.43E2,5E1,2.69E2,2.9E1],"tree_param":{"num_deleted":"0","num_feature":"7","num_nodes":"63","size_leaf_vector":"1"}},{"base_weights":[1.54405935E-2,-4.4194083E0,8.051782E0,-7.40127E0,-1.4371748E0,6.0803676E0,1.43315115E1,-8.998743E0,-6.170015E0,-3.5874767E0,8.338599E-1,3.2469785E0,8.412673E0,1.0925093E1,1.8287254E1,-7.868688E0,-1.0172895E1,-7.5768967E0,-4.602521E0,-4.0870924E0,2.09558E-1,2.4374716E-1,7.4072857E0,6.849643E0,1.7883596E0,5.0140314E0,1.18749895E1,9.559605E0,1.6621117E1,1.4153652E1,2.253904E1,-9.200123E-1,-6.994845E-1,-1.2331583E0,-8.031308E-1,-8.652793E-1,-6.774767E-1,-6.48455E-1,-3.1824446E-1,-2.0911713E-1,-4.7407523E-1,-4.202715E-1,3.410989E-1,-4.0289532E-2,4.8204747E-1,2.0185427E-1,1.0520958E0,7.0899147E-1,-8.4422016E-1,-1.5310073E-1,4.4124255E-1,7.5188875E-1,3.1305262E-1,9.568674E-1,1.7634817E0,5.8762354E-1,1.0975633E0,1.570391E0,3.5854614E0,3.5004932E-1,1.5315751E0,2.0041473E0,2.976777E0],"categories":[],"categories_nodes":[],"categories_segments":[],"categories_sizes":[],"default_left":[0,0,0,0,0,0,0,0,0,0,0,0,0,0,0,0,0,0,0,0,0,0,0,0,0,0,0,0,0,0,0,0,0,0,0,0,0,0,0,0,0,0,0,0,0,0,0,0,0,0,0,0,0,0,0,0,0,0,0,0,0,0,0],"id":21,"left_children":[1,3,5,7,9,11,13,15,17,19,21,23,25,27,29,31,33,35,37,39,41,43,45,47,49,51,53,55,57,59,61,-1,-1,-1,-1,-1,-1,-1,-1,-1,-1,-1,-1,-1,-1,-1,-1,-1,-1,-1,-1,-1,-1,-1,-1,-1,-1,-1,-1,-1,-1,-1,-1],"loss_changes":[4.277507E5,6.876481E4,5.275047E4,7.550453E3,1.8892023E4,2.1449742E4,1.3531141E4,2.1504062E3,4.7880703E3,3.7703086E3,7.298589E3,7.7072197E3,2.0909555E4,4.1189297E3,7.941328E3,9.373867E2,3.6964531E3,9.347031E2,2.750873E3,2.2810566E3,3.2914717E3,5.115969E3,2.5794736E3,1.6140391E3,9.126375E3,4.227297E3,1.1547734E4,2.2617266E3,1.2892559E3,2.9299727E3,3.5558828E3,0E0,0E0,0E0,0E0,0E0,0E0,0E0,0E0,0E0,0E0,0E0,0E0,0E0,0E0,0E0,0E0,0E0,0E0,0E0,0E0,0E0,0E0,0E0,0E0,0E0,0E0,0E0,0E0,0E0,0E0,0E0,0E0],"parents":[2147483647,0,0,1,1,2,2,3,3,4,4,5,5,6,6,7,7,8,8,9,9,10,10,11,11,12,12,13,13,14,14,15,15,16,16,17,17,18,18,19,19,20,20,21,21,22,22,23,23,24,24,25,25,26,26,27,27,28,28,29,29,30,30],"right_children":[2,4,6,8,10,12,14,16,18,20,22,24,26,28,30,32,34,36,38,40,42,44,46,48,50,52,54,56,58,60,62,-1,-1,-1,-1,-1,-1,-1,-1,-1,-1,-1,-1,-1,-1,-1,-1,-1,-1,-1,-1,-1,-1,-1,-1,-1,-1,-1,-1,-1,-1,-1,-1],"split_conditions":[5.439627E-1,-4.6916896E-1,1.5075635E0,-1.0980935E0,-5.8287814E-2,-2.7829266E-1,-4.228475E-2,1.0071925E0,-7.8098845E-1,1.4917666E0,1.5389996E0,-7.2677493E-1,1.0071925E0,1.7484637E0,1.0071925E0,-1.3832389E0,-1.6028869E-1,-3.372946E-1,-3.962966E-1,-7.2677493E-1,1.0071925E0,8.9350086E-1,-2.1929067E-1,1.0071925E0,7.886801E-1,-8.600558E-1,1.3147607E0,-1.0453182E0,2.3609915E0,6.8385935E-1,1.5507685E0,-9.200123E-1,-6.994845E-1,-1.2331583E0,-8.031308E-1,-8.652793E-1,-6.774767E-1,-6.48455E-1,-3.1824446E-1,-2.0911713E-1,-4.7407523E-1,-4.202715E-1,3.410989E-1,-4.0289532E-2,4.8204747E-1,2.0185427E-1,1.0520958E0,7.0899147E-1,-8.4422016E-1,-1.5310073E-1,4.4124255E-1,7.5188875E-1,3.1305262E-1,9.568674E-1,1.7634817E0,5.8762354E-1,1.0975633E0,1.570391E0,3.5854614E0,3.5004932E-1,1.5315751E0,2.0041473E0,2.976777E0],"split_indices":[4,5,4,5,4,1,1,0,4,1,3,3,0,4,0,4,1,1,1,3,0,5,1,0,5,3,1,1,5,5,1,0,0,0,0,0,0,0,0,0,0,0,0,0,0,0,0,0,0,0,0,0,0,0,0,0,0,0,0,0,0,0,0],"split_type":[0,0,0,0,0,0,0,0,0,0,0,0,0,0,0,0,0,0,0,0,0,0,0,0,0,0,0,0,0,0,0,0,0,0,0,0,0,0,0,0,0,0,0,0,0,0,0,0,0,0,0,0,0,0,0,0,0,0,0,0,0,0,0],"sum_hessian":[1.2E4,7.733E3,4.267E3,3.866E3,3.867E3,3.249E3,1.018E3,1.68E3,2.186E3,1.986E3,1.881E3,1.468E3,1.781E3,5.49E2,4.69E2,8.6E2,8.2E2,1.15E3,1.036E3,1.755E3,2.31E2,1.727E3,1.54E2,4.22E2,1.046E3,9E2,8.81E2,4.45E2,1.04E2,2.4E2,2.29E2,3.37E2,5.23E2,4.06E2,4.14E2,4.87E2,6.63E2,4.44E2,5.92E2,4.34E2,1.321E3,9.7E1,1.34E2,1.514E3,2.13E2,5.7E1,9.7E1,4.16E2,6E0,4.62E2,5.84E2,3.85E2,5.15E2,6.31E2,2.5E2,1.25E2,3.2E2,1.01E2,3E0,2.4E1,2.16E2,1.73E2,5.6E1],"tree_param":{"num_deleted":"0","num_feature":"7","num_nodes":"63","size_leaf_vector":"1"}},{"base_weights":[1.4931192E-2,-4.3515644E0,6.700031E0,-6.722846E0,-1.6500244E0,2.932713E0,1.0060282E1,-7.9063034E0,-5.6825523E0,-5.9779706E0,-9.5598376E-1,2.2193274E0,9.029686E0,8.865973E0,1.7694586E1,-9.0823345E0,-7.3593984E0,-6.063761E0,-1.874684E0,-3.8488266E0,-8.390925E0,-3.0337043E0,3.0028018E-1,-1.3720847E0,3.3390162E0,5.3468575E0,1.0981298E1,7.957518E0,1.7214508E1,1.2233562E1,2.0923573E1,-1.0083444E0,-8.569829E-1,-7.825029E-1,-5.533752E-1,-4.7515938E-1,-7.423639E-1,-5.0487226E-1,-4.920171E-3,-7.642861E-1,-3.1148162E-1,-1.2885945E0,-3.3878967E-1,1.1208127E-1,-7.0495135E-1,-6.5545574E-2,4.177989E-1,1.649828E-1,-4.1691327E-1,1.8351589E-1,6.668967E-1,1.01704635E-1,6.616379E-1,7.4565995E-1,1.4143912E0,6.9115585E-1,1.4073237E0,1.5588617E0,3.054772E0,1.0574135E0,1.9349473E0,1.9918362E0,3.4701536E0],"categories":[],"categories_nodes":[],"categories_segments":[],"categories_sizes":[],"default_left":[0,0,0,0,0,0,0,0,0,0,0,0,0,0,0,0,0,0,0,0,0,0,0,0,0,0,0,0,0,0,0,0,0,0,0,0,0,0,0,0,0,0,0,0,0,0,0,0,0,0,0,0,0,0,0,0,0,0,0,0,0,0,0],"id":22,"left_children":[1,3,5,7,9,11,13,15,17,19,21,23,25,27,29,31,33,35,37,39,41,43,45,47,49,51,53,55,57,59,61,-1,-1,-1,-1,-1,-1,-1,-1,-1,-1,-1,-1,-1,-1,-1,-1,-1,-1,-1,-1,-1,-1,-1,-1,-1,-1,-1,-1,-1,-1,-1,-1],"loss_changes":[3.503438E5,4.649728E4,6.000011E4,4.714672E3,1.0192086E4,9.709773E3,2.2692125E4,1.0947344E3,2.9803672E3,2.377205E3,7.640865E3,8.0631934E3,1.6231484E3,1.6313281E4,5.704164E3,2.0552734E2,1.00909375E3,3.3068828E3,1.0948462E3,6.751941E2,4.881369E3,1.8410074E4,6.7663076E3,4.0386897E3,7.639635E3,4.4950415E2,1.588918E3,1.2427656E4,4.1196094E3,1.3068633E3,2.2311016E3,0E0,0E0,0E0,0E0,0E0,0E0,0E0,0E0,0E0,0E0,0E0,0E0,0E0,0E0,0E0,0E0,0E0,0E0,0E0,0E0,0E0,0E0,0E0,0E0,0E0,0E0,0E0,0E0,0E0,0E0,0E0,0E0],"parents":[2147483647,0,0,1,1,2,2,3,3,4,4,5,5,6,6,7,7,8,8,9,9,10,10,11,11,12,12,13,13,14,14,15,15,16,16,17,17,18,18,19,19,20,20,21,21,22,22,23,23,24,24,25,25,26,26,27,27,28,28,29,29,30,30],"right_children":[2,4,6,8,10,12,14,16,18,20,22,24,26,28,30,32,34,36,38,40,42,44,46,48,50,52,54,56,58,60,62,-1,-1,-1,-1,-1,-1,-1,-1,-1,-1,-1,-1,-1,-1,-1,-1,-1,-1,-1,-1,-1,-1,-1,-1,-1,-1,-1,-1,-1,-1,-1,-1],"split_conditions":[3.6939707E-1,-5.4008824E-1,1.0257632E0,-1.1423388E0,-6.788105E-1,1.3127838E0,1.2057974E0,-1.503689E0,1.6687725E0,1.0071925E0,-5.733025E-1,-8.6831236E-1,-7.5030845E-1,1.9417084E0,-3.372946E-1,-1.6241392E0,9.607488E-1,1.0071925E0,1.0071925E0,-1.2029142E0,-4.228475E-2,1.0071925E0,1.0725166E0,1.0071925E0,6.72674E-1,-1.2223243E0,1.0071925E0,1.3147607E0,2.4658122E0,1.8055613E0,2.15135E0,-1.0083444E0,-8.569829E-1,-7.825029E-1,-5.533752E-1,-4.7515938E-1,-7.423639E-1,-5.0487226E-1,-4.920171E-3,-7.642861E-1,-3.1148162E-1,-1.2885945E0,-3.3878967E-1,1.1208127E-1,-7.0495135E-1,-6.5545574E-2,4.177989E-1,1.649828E-1,-4.1691327E-1,1.8351589E-1,6.668967E-1,1.01704635E-1,6.616379E-1,7.4565995E-1,1.4143912E0,6.9115585E-1,1.4073237E0,1.5588617E0,3.054772E0,1.0574135E0,1.9349473E0,1.9918362E0,3.4701536E0],"split_indices":[5,4,4,4,5,5,3,4,1,0,1,1,1,5,1,4,1,0,0,5,1,0,3,0,3,1,0,1,5,3,5,0,0,0,0,0,0,0,0,0,0,0,0,0,0,0,0,0,0,0,0,0,0,0,0,0,0,0,0,0,0,0,0],"split_type":[0,0,0,0,0,0,0,0,0,0,0,0,0,0,0,0,0,0,0,0,0,0,0,0,0,0,0,0,0,0,0,0,0,0,0,0,0,0,0,0,0,0,0,0,0,0,0,0,0,0,0,0,0,0,0,0,0,0,0,0,0,0,0],"sum_hessian":[1.2E4,7.259E3,4.741E3,3.865E3,3.394E3,2.236E3,2.505E3,1.805E3,2.06E3,4.68E2,2.926E3,2.003E3,2.33E2,2.168E3,3.37E2,5.68E2,1.237E3,1.872E3,1.88E2,2.5E2,2.18E2,1.102E3,1.824E3,4.76E2,1.527E3,8.2E1,1.51E2,1.957E3,2.11E2,1.27E2,2.1E2,1.86E2,3.82E2,9.83E2,2.54E2,9.55E2,9.17E2,6.8E1,1.2E2,3.9E1,2.11E2,1.14E2,1.04E2,5.42E2,5.6E2,1.464E3,3.6E2,2.29E2,2.47E2,1.053E3,4.74E2,1.9E1,6.3E1,7.3E1,7.8E1,1.673E3,2.84E2,1.9E2,2.1E1,1.05E2,2.2E1,1.98E2,1.2E1],"tree_param":{"num_deleted":"0","num_feature":"7","num_nodes":"63","size_leaf_vector":"1"}},{"base_weights":[1.4337948E-2,-3.367701E0,7.112861E0,-5.77942E0,-6.3362074E-1,5.8932834E0,1.3929966E1,-6.9564295E0,-4.3632245E0,-2.4451487E0,1.2778585E0,4.994851E0,1.2047845E1,1.0703605E1,1.7601665E1,-5.9537334E0,-7.9983134E0,-5.575431E0,-2.52928E0,-2.9195771E0,1.4737053E0,7.194573E-1,7.270816E0,3.9807937E-1,6.0286117E0,1.121251E1,3.1092355E0,9.143775E0,1.6032385E1,1.4930567E1,2.2867004E1,-7.453355E-1,-5.162323E-1,-9.7065604E-1,-5.548336E-1,-5.99692E-1,-3.897856E-1,-6.331853E-1,-1.7555545E-1,-1.21019006E-1,-3.463498E-1,-3.1799704E-1,4.8668525E-1,-1.6957603E-1,1.7403664E-1,4.396115E-1,1.1211367E0,4.193352E-1,-3.2440454E-1,5.1722425E-1,1.2345365E0,9.165002E-1,1.7304333E0,1.2438416E0,7.5690657E-1,9.2358464E-1,1.8566283E0,1.277223E0,2.0459466E0,-8.5328144E-1,2.3315687E0],"categories":[],"categories_nodes":[],"categories_segments":[],"categories_sizes":[],"default_left":[0,0,0,0,0,0,0,0,0,0,0,0,0,0,0,0,0,0,0,0,0,0,0,0,0,0,0,0,0,0,0,0,0,0,0,0,0,0,0,0,0,0,0,0,0,0,0,0,0,0,0,0,0,0,0,0,0,0,0,0,0],"id":23,"left_children":[1,3,5,7,9,11,13,15,17,19,21,23,25,27,29,31,33,35,37,39,41,43,45,47,49,51,-1,53,55,57,59,-1,-1,-1,-1,-1,-1,-1,-1,-1,-1,-1,-1,-1,-1,-1,-1,-1,-1,-1,-1,-1,-1,-1,-1,-1,-1,-1,-1,-1,-1],"loss_changes":[2.8813778E5,5.3597594E4,3.2118E4,7.168875E3,1.3199466E4,1.811514E4,6.765336E3,2.4147266E3,4.349875E3,3.642787E3,6.2024795E3,1.3635727E4,6.3011445E3,2.4716836E3,3.4981172E3,1.3916367E3,4.7716406E3,8.116875E2,2.2925845E3,1.6191885E3,3.3630847E3,4.1897393E3,1.7405225E3,7.3120713E3,1.2610547E4,4.8555703E3,0E0,1.182127E3,1.0340449E3,1.9343984E3,1.4669141E3,0E0,0E0,0E0,0E0,0E0,0E0,0E0,0E0,0E0,0E0,0E0,0E0,0E0,0E0,0E0,0E0,0E0,0E0,0E0,0E0,0E0,0E0,0E0,0E0,0E0,0E0,0E0,0E0,0E0,0E0],"parents":[2147483647,0,0,1,1,2,2,3,3,4,4,5,5,6,6,7,7,8,8,9,9,10,10,11,11,12,12,13,13,14,14,15,15,16,16,17,17,18,18,19,19,20,20,21,21,22,22,23,23,24,24,25,25,27,27,28,28,29,29,30,30],"right_children":[2,4,6,8,10,12,14,16,18,20,22,24,26,28,30,32,34,36,38,40,42,44,46,48,50,52,-1,54,56,58,60,-1,-1,-1,-1,-1,-1,-1,-1,-1,-1,-1,-1,-1,-1,-1,-1,-1,-1,-1,-1,-1,-1,-1,-1,-1,-1,-1,-1,-1,-1],"split_conditions":[6.644128E-1,-3.643482E-1,1.6280136E0,-8.88452E-1,6.216229E-2,1.6272461E0,-4.228475E-2,1.0071925E0,-5.4008824E-1,1.5507685E0,1.5389996E0,-9.863163E-1,2.4658122E0,9.558712E-1,6.0603356E-1,-1.3832389E0,1.3472117E-1,1.1377547E0,-1.0453182E0,-7.2677493E-1,1.0071925E0,-7.5030845E-1,4.8873302E-1,1.0071925E0,1.2724378E0,7.3931444E-1,3.1092355E0,-8.600558E-1,-9.863163E-1,1.7320669E0,-2.5952744E-1,-7.453355E-1,-5.162323E-1,-9.7065604E-1,-5.548336E-1,-5.99692E-1,-3.897856E-1,-6.331853E-1,-1.7555545E-1,-1.21019006E-1,-3.463498E-1,-3.1799704E-1,4.8668525E-1,-1.6957603E-1,1.7403664E-1,4.396115E-1,1.1211367E0,4.193352E-1,-3.2440454E-1,5.1722425E-1,1.2345365E0,9.165002E-1,1.7304333E0,1.2438416E0,7.5690657E-1,9.2358464E-1,1.8566283E0,1.277223E0,2.0459466E0,-8.5328144E-1,2.3315687E0],"split_indices":[4,5,4,5,4,5,1,0,4,1,3,1,5,2,3,4,1,1,1,3,0,1,1,0,3,3,0,3,1,5,5,0,0,0,0,0,0,0,0,0,0,0,0,0,0,0,0,0,0,0,0,0,0,0,0,0,0,0,0,0,0],"split_type":[0,0,0,0,0,0,0,0,0,0,0,0,0,0,0,0,0,0,0,0,0,0,0,0,0,0,0,0,0,0,0,0,0,0,0,0,0,0,0,0,0,0,0,0,0,0,0,0,0,0,0,0,0,0,0,0,0,0,0,0,0],"sum_hessian":[1.2E4,8.128E3,3.872E3,4.318E3,3.81E3,3.286E3,5.86E2,2.356E3,1.962E3,1.956E3,1.854E3,2.869E3,4.17E2,3.14E2,2.72E2,1.204E3,1.152E3,1.18E3,7.82E2,1.745E3,2.11E2,1.697E3,1.57E2,5.27E2,2.342E3,4.01E2,1.6E1,2.45E2,6.9E1,1.83E2,8.9E1,4.13E2,7.91E2,6.77E2,4.75E2,9.41E2,2.39E2,1.31E2,6.51E2,4.22E2,1.323E3,8.9E1,1.22E2,5.04E2,1.193E3,9.2E1,6.5E1,2.58E2,2.69E2,2.064E3,2.78E2,3.02E2,9.9E1,7.7E1,1.68E2,2E1,4.9E1,1.34E2,4.9E1,1E0,8.8E1],"tree_param":{"num_deleted":"0","num_feature":"7","num_nodes":"61","size_leaf_vector":"1"}},{"base_weights":[1.405901E-2,-2.8325636E0,7.018979E0,-4.6567316E0,5.184454E-1,4.8741956E0,1.08160305E1,-6.086745E0,-3.3634875E0,-6.7132905E-2,5.439343E0,3.7992759E0,9.296672E0,8.598187E0,1.48277445E1,-7.605728E0,-5.538458E0,-4.7597313E0,-2.6779613E0,2.5063295E0,-1.2945049E0,1.1607158E0,9.303573E0,7.3737967E-1,4.8922496E0,6.437524E0,1.2785842E1,7.6273293E0,1.3994757E1,1.1059402E1,1.8479422E1,-5.502086E-1,-9.9298966E-1,-7.018727E-1,-5.02747E-1,-5.173616E-1,-2.7900848E-1,-2.979098E-1,1.9805257E-1,1.447963E-1,5.258222E-1,-4.8870507E-1,3.2417085E-2,5.113935E-1,-5.518742E-3,7.358002E-1,1.2595671E0,2.8318417E-1,-2.241612E-1,4.4044948E-1,1.1648601E0,5.500525E-1,1.5038751E0,1.171383E0,2.1526654E0,4.970417E-1,9.1841394E-1,8.143522E-1,1.5898545E0,9.58694E-1,1.7898184E0,1.6794039E0,2.6814363E0],"categories":[],"categories_nodes":[],"categories_segments":[],"categories_sizes":[],"default_left":[0,0,0,0,0,0,0,0,0,0,0,0,0,0,0,0,0,0,0,0,0,0,0,0,0,0,0,0,0,0,0,0,0,0,0,0,0,0,0,0,0,0,0,0,0,0,0,0,0,0,0,0,0,0,0,0,0,0,0,0,0,0,0],"id":24,"left_children":[1,3,5,7,9,11,13,15,17,19,21,23,25,27,29,31,33,35,37,39,41,43,45,47,49,51,53,55,57,59,61,-1,-1,-1,-1,-1,-1,-1,-1,-1,-1,-1,-1,-1,-1,-1,-1,-1,-1,-1,-1,-1,-1,-1,-1,-1,-1,-1,-1,-1,-1,-1,-1],"loss_changes":[2.3932419E5,5.216907E4,2.8190156E4,1.0199078E4,8.671011E3,1.0508625E4,1.1003094E4,2.142414E3,2.7668516E3,8.499867E3,5.279952E3,5.973369E3,4.237324E3,4.126617E3,5.905414E3,3.3335938E3,1.4253164E3,7.6408594E2,2.7414385E3,2.523358E3,1.0596817E4,7.357121E2,9.833623E2,2.9450981E3,4.2855E3,1.8515205E3,1.565668E3,2.795996E3,1.2295508E3,2.0538496E3,2.6963281E3,0E0,0E0,0E0,0E0,0E0,0E0,0E0,0E0,0E0,0E0,0E0,0E0,0E0,0E0,0E0,0E0,0E0,0E0,0E0,0E0,0E0,0E0,0E0,0E0,0E0,0E0,0E0,0E0,0E0,0E0,0E0,0E0],"parents":[2147483647,0,0,1,1,2,2,3,3,4,4,5,5,6,6,7,7,8,8,9,9,10,10,11,11,12,12,13,13,14,14,15,15,16,16,17,17,18,18,19,19,20,20,21,21,22,22,23,23,24,24,25,25,26,26,27,27,28,28,29,29,30,30],"right_children":[2,4,6,8,10,12,14,16,18,20,22,24,26,28,30,32,34,36,38,40,42,44,46,48,50,52,54,56,58,60,62,-1,-1,-1,-1,-1,-1,-1,-1,-1,-1,-1,-1,-1,-1,-1,-1,-1,-1,-1,-1,-1,-1,-1,-1,-1,-1,-1,-1,-1,-1,-1,-1],"split_conditions":[6.8385935E-1,-5.8287814E-2,1.3871135E0,-7.836312E-1,1.5507685E0,1.0058762E0,3.7072906E-1,-8.093104E-1,-7.8098845E-1,-5.9349406E-1,1.0071925E0,-8.6831236E-1,3.117271E-1,1.7484637E0,1.0071925E0,1.0071925E0,-1.5173765E0,-1.547067E-1,1.6056399E0,7.8486294E-1,-7.5030845E-1,-1.059977E0,1.9637823E0,1.0071925E0,1.7320669E0,1.7320669E0,2.1387634E0,-8.6831236E-1,-9.863163E-1,1.7484637E0,1.8457783E0,-5.502086E-1,-9.9298966E-1,-7.018727E-1,-5.02747E-1,-5.173616E-1,-2.7900848E-1,-2.979098E-1,1.9805257E-1,1.447963E-1,5.258222E-1,-4.8870507E-1,3.2417085E-2,5.113935E-1,-5.518742E-3,7.358002E-1,1.2595671E0,2.8318417E-1,-2.241612E-1,4.4044948E-1,1.1648601E0,5.500525E-1,1.5038751E0,1.171383E0,2.1526654E0,4.970417E-1,9.1841394E-1,8.143522E-1,1.5898545E0,9.58694E-1,1.7898184E0,1.6794039E0,2.6814363E0],"split_indices":[5,4,4,5,1,3,1,1,4,3,0,1,1,4,0,0,5,5,3,4,1,3,1,0,5,5,3,1,1,4,1,0,0,0,0,0,0,0,0,0,0,0,0,0,0,0,0,0,0,0,0,0,0,0,0,0,0,0,0,0,0,0,0],"split_type":[0,0,0,0,0,0,0,0,0,0,0,0,0,0,0,0,0,0,0,0,0,0,0,0,0,0,0,0,0,0,0,0,0,0,0,0,0,0,0,0,0,0,0,0,0,0,0,0,0,0,0,0,0,0,0,0,0,0,0,0,0,0,0],"sum_hessian":[1.2E4,8.533E3,3.467E3,5.525E3,3.008E3,2.217E3,1.25E3,2.622E3,2.903E3,2.689E3,3.19E2,1.785E3,4.32E2,8.07E2,4.43E2,6.92E2,1.93E3,9.54E2,1.949E3,8.68E2,1.821E3,1.52E2,1.67E2,4.7E2,1.315E3,2.39E2,1.93E2,6.86E2,1.21E2,2.2E2,2.23E2,3.65E2,3.27E2,4.92E2,1.438E3,7.87E2,1.67E2,1.831E3,1.18E2,6.28E2,2.4E2,5.65E2,1.256E3,3.5E1,1.17E2,1.07E2,6E1,2.76E2,1.94E2,1.228E3,8.7E1,2.17E2,2.2E1,1.74E2,1.9E1,2.55E2,4.31E2,3.1E1,9E1,1.83E2,3.7E1,1.88E2,3.5E1],"tree_param":{"num_deleted":"0","num_feature":"7","num_nodes":"63","size_leaf_vector":"1"}},{"base_weights":[1.4073754E-2,-2.7918103E0,5.812228E0,-4.387842E0,8.8530695E-3,3.985715E0,9.473416E0,-5.517255E0,-3.1283085E0,-1.8103639E0,1.642382E0,3.1361833E0,8.451986E0,8.156824E0,1.5036044E1,-4.645721E0,-6.4498224E0,-4.314282E0,-1.9884045E0,-2.2932267E0,1.5333215E0,-2.0129888E0,2.3614523E0,2.7050612E0,9.499809E0,3.0401227E0,1.2924802E1,5.579649E0,1.0290309E1,1.3495703E1,2.6202906E1,-6.144941E-1,-3.968452E-1,-7.6459897E-1,-3.47244E-1,-4.9634424E-1,-3.0654842E-1,6.2383484E-2,-2.982442E-1,-1.9190548E-2,-2.6608738E-1,1.8770684E-3,7.033039E-1,3.2576218E-1,-6.796582E-1,1.5806733E-1,6.361468E-1,-1.998018E-2,3.4855422E-1,7.268026E-1,1.4481119E0,4.8569804E-1,7.865163E-2,1.03386E0,1.5908942E0,8.7473804E-1,4.2495617E-1,9.0848047E-1,1.6149609E0,9.7970074E-1,1.6332909E0,2.1747832E0,4.3237696E0],"categories":[],"categories_nodes":[],"categories_segments":[],"categories_sizes":[],"default_left":[0,0,0,0,0,0,0,0,0,0,0,0,0,0,0,0,0,0,0,0,0,0,0,0,0,0,0,0,0,0,0,0,0,0,0,0,0,0,0,0,0,0,0,0,0,0,0,0,0,0,0,0,0,0,0,0,0,0,0,0,0,0,0],"id":25,"left_children":[1,3,5,7,9,11,13,15,17,19,21,23,25,27,29,31,33,35,37,39,41,43,45,47,49,51,53,55,57,59,61,-1,-1,-1,-1,-1,-1,-1,-1,-1,-1,-1,-1,-1,-1,-1,-1,-1,-1,-1,-1,-1,-1,-1,-1,-1,-1,-1,-1,-1,-1,-1,-1],"loss_changes":[1.9525989E5,3.615298E4,2.6135984E4,7.3116406E3,8.730984E3,9.88784E3,9.412828E3,2.1766797E3,3.2873457E3,2.2477285E3,4.0736235E3,6.0017695E3,1.0054719E4,5.7433516E3,3.9121602E3,1.404248E3,4.6353867E3,9.5272266E2,3.2347075E3,9.3813135E2,1.4658776E3,6.451317E3,4.031273E3,4.66884E3,1.440042E3,7.741312E2,1.5951367E3,1.9852393E3,3.9218164E3,2.1486562E3,1.2605215E3,0E0,0E0,0E0,0E0,0E0,0E0,0E0,0E0,0E0,0E0,0E0,0E0,0E0,0E0,0E0,0E0,0E0,0E0,0E0,0E0,0E0,0E0,0E0,0E0,0E0,0E0,0E0,0E0,0E0,0E0,0E0,0E0],"parents":[2147483647,0,0,1,1,2,2,3,3,4,4,5,5,6,6,7,7,8,8,9,9,10,10,11,11,12,12,13,13,14,14,15,15,16,16,17,17,18,18,19,19,20,20,21,21,22,22,23,23,24,24,25,25,26,26,27,27,28,28,29,29,30,30],"right_children":[2,4,6,8,10,12,14,16,18,20,22,24,26,28,30,32,34,36,38,40,42,44,46,48,50,52,54,56,58,60,62,-1,-1,-1,-1,-1,-1,-1,-1,-1,-1,-1,-1,-1,-1,-1,-1,-1,-1,-1,-1,-1,-1,-1,-1,-1,-1,-1,-1,-1,-1,-1,-1],"split_conditions":[5.7903856E-1,-1.547067E-1,1.3871135E0,-7.836312E-1,1.8261239E-1,1.2557586E0,1.0058762E0,1.0071925E0,-5.4008824E-1,1.2724378E0,-1.0453182E0,1.7320669E0,1.0071925E0,-3.372946E-1,1.9417084E0,-1.3832389E0,6.6573894E-1,4.8873302E-1,-6.601345E-1,-1.059977E0,1.3737626E0,1.0071925E0,1.1391569E0,-9.863163E-1,8.059549E-1,-5.905806E-1,9.05313E-1,-8.600558E-1,1.7484637E0,-2.7829266E-1,2.6754537E0,-6.144941E-1,-3.968452E-1,-7.6459897E-1,-3.47244E-1,-4.9634424E-1,-3.0654842E-1,6.2383484E-2,-2.982442E-1,-1.9190548E-2,-2.6608738E-1,1.8770684E-3,7.033039E-1,3.2576218E-1,-6.796582E-1,1.5806733E-1,6.361468E-1,-1.998018E-2,3.4855422E-1,7.268026E-1,1.4481119E0,4.8569804E-1,7.865163E-2,1.03386E0,1.5908942E0,8.7473804E-1,4.2495617E-1,9.0848047E-1,1.6149609E0,9.7970074E-1,1.6332909E0,2.1747832E0,4.3237696E0],"split_indices":[5,5,4,5,4,1,3,0,4,3,1,5,0,1,5,4,1,1,3,3,1,0,3,1,3,2,4,3,4,1,5,0,0,0,0,0,0,0,0,0,0,0,0,0,0,0,0,0,0,0,0,0,0,0,0,0,0,0,0,0,0,0,0],"split_type":[0,0,0,0,0,0,0,0,0,0,0,0,0,0,0,0,0,0,0,0,0,0,0,0,0,0,0,0,0,0,0,0,0,0,0,0,0,0,0,0,0,0,0,0,0,0,0,0,0,0,0,0,0,0,0,0,0,0,0,0,0,0,0],"sum_hessian":[1.2E4,8.087E3,3.913E3,5.151E3,2.936E3,2.612E3,1.301E3,2.714E3,2.437E3,1.389E3,1.547E3,2.196E3,4.16E2,1.054E3,2.47E2,1.406E3,1.308E3,1.193E3,1.244E3,1.214E3,1.75E2,2.54E2,1.293E3,2.058E3,1.38E2,1.89E2,2.27E2,4.79E2,5.75E2,2.19E2,2.8E1,4.35E2,9.71E2,9.32E2,3.76E2,7.83E2,4.1E2,3.43E2,9.01E2,1.81E2,1.033E3,1.38E2,3.7E1,1.21E2,1.33E2,1.083E3,2.1E2,4.36E2,1.622E3,9.7E1,4.1E1,1.04E2,8.5E1,1.24E2,1.03E2,1.4E2,3.39E2,4.79E2,9.6E1,9.7E1,1.22E2,2.4E1,4E0],"tree_param":{"num_deleted":"0","num_feature":"7","num_nodes":"63","size_leaf_vector":"1"}},{"base_weights":[1.4026493E-2,-2.3101902E0,5.7403827E0,-4.094455E0,-1.1629279E-1,4.868933E0,1.1162676E1,-5.702995E0,-3.4236834E0,-1.6738949E0,1.0849077E0,4.232584E0,1.1555145E1,9.597351E0,1.9087008E1,-7.0082245E0,-5.1520877E0,-4.5479736E0,-2.5138364E0,-2.0798008E0,1.6516887E0,5.2226454E-1,5.4472632E0,3.6294444E0,9.80365E0,6.590544E0,1.572798E1,6.1435256E0,1.2153501E1,1.3628466E1,2.5076736E1,-5.449695E-1,-8.6826706E-1,-5.544027E-1,-3.7455615E-1,-6.3488084E-1,-4.251553E-1,-5.300748E-1,-1.9804257E-1,-3.8734207E-1,-1.7018874E-1,-2.439868E-1,4.884673E-1,-2.2948453E-2,2.8502858E-1,1.9795099E-1,7.5285727E-1,-5.2020645E-1,3.9241576E-1,7.718093E-1,1.3416429E0,4.534769E-1,1.0300442E0,1.1442721E0,1.763739E0,4.9082E-1,9.3508196E-1,8.126899E-1,1.597298E0,1.8713572E0,9.921975E-1,2.0772374E0,3.568179E0],"categories":[],"categories_nodes":[],"categories_segments":[],"categories_sizes":[],"default_left":[0,0,0,0,0,0,0,0,0,0,0,0,0,0,0,0,0,0,0,0,0,0,0,0,0,0,0,0,0,0,0,0,0,0,0,0,0,0,0,0,0,0,0,0,0,0,0,0,0,0,0,0,0,0,0,0,0,0,0,0,0,0,0],"id":26,"left_children":[1,3,5,7,9,11,13,15,17,19,21,23,25,27,29,31,33,35,37,39,41,43,45,47,49,51,53,55,57,59,61,-1,-1,-1,-1,-1,-1,-1,-1,-1,-1,-1,-1,-1,-1,-1,-1,-1,-1,-1,-1,-1,-1,-1,-1,-1,-1,-1,-1,-1,-1,-1,-1],"loss_changes":[1.5973808E5,3.3417555E4,1.6318664E4,5.0602344E3,7.1677163E3,1.2660078E4,5.7584062E3,9.590703E2,3.3898164E3,2.255026E3,5.306129E3,9.134219E3,5.26191E3,3.4743906E3,2.2084648E3,1.01742773E3,5.178281E2,7.6624023E2,2.724787E3,1.0013457E3,2.4194028E3,3.3555723E3,1.767811E3,6.433621E3,1.900668E3,